//Numpy array shape [512]
//Min -0.066331624985
//Max 0.065264374018
//Number of zeros 0

#ifndef B2_H_
#define B2_H_

#ifndef __SYNTHESIS__
dense_bias_t b2[512];
#else
dense_bias_t b2[512] = {0.0031393385, 0.0210804828, -0.0286080092, -0.0013279309, -0.0192157384, 0.0116716791, -0.0135782892, 0.0295182969, -0.0140566640, -0.0066418294, 0.0046673412, -0.0339916088, 0.0082624657, -0.0109415958, 0.0250014327, 0.0245864186, 0.0020187667, 0.0117832758, -0.0067080921, 0.0186457429, -0.0486364029, -0.0071281386, -0.0121282404, -0.0046748472, -0.0225750692, 0.0253614224, 0.0032582544, 0.0190393105, 0.0005640949, 0.0225544814, 0.0227743704, 0.0222045239, -0.0040870570, 0.0232368354, -0.0490797609, 0.0030357502, -0.0062848716, -0.0027793930, -0.0105194524, -0.0228001438, 0.0277229380, 0.0203256402, -0.0182038005, -0.0083265379, 0.0354051441, -0.0050357566, 0.0512935817, -0.0078941621, -0.0099133337, 0.0161308590, 0.0037033102, -0.0077634491, 0.0316709578, 0.0143994633, -0.0359512717, -0.0004262969, -0.0206383169, 0.0200898536, 0.0227724146, 0.0085129645, -0.0484831184, 0.0207843147, 0.0008981898, -0.0280467551, 0.0115631064, 0.0005891434, -0.0181335155, 0.0356568545, 0.0156467985, 0.0392316543, 0.0013058026, 0.0039173868, 0.0033926331, 0.0017638482, -0.0500185601, 0.0627199933, -0.0193150267, -0.0304006971, -0.0032800257, -0.0027504866, -0.0102859531, 0.0436687283, -0.0078858742, 0.0082516689, -0.0123497145, 0.0233923011, 0.0023634913, -0.0413780622, -0.0021355692, -0.0308525059, -0.0259856731, 0.0280290898, 0.0103945928, -0.0258309636, -0.0567313246, -0.0237066094, 0.0237713102, 0.0267615840, 0.0061630127, 0.0226017274, 0.0083174855, -0.0010375642, 0.0502636693, -0.0197380390, -0.0133792879, 0.0114700207, 0.0090306187, 0.0041022603, -0.0271869488, -0.0047262944, 0.0071796961, -0.0182878226, -0.0031740032, 0.0149824899, -0.0219122674, 0.0075441101, 0.0016422566, 0.0122035788, 0.0304462761, -0.0057932683, 0.0114513822, 0.0096307900, -0.0380203761, -0.0152245723, 0.0103613231, -0.0351263061, 0.0240383130, -0.0018246662, -0.0112448381, 0.0175128598, -0.0201502908, -0.0254561044, 0.0277499445, -0.0236256812, 0.0094539011, 0.0221214909, 0.0048724441, -0.0193177145, 0.0021571917, -0.0080513982, -0.0305234119, 0.0121323699, 0.0115832062, 0.0193487592, -0.0241639186, -0.0189545043, -0.0102802394, -0.0105685415, 0.0022978853, 0.0037825825, -0.0176955555, 0.0090657538, -0.0264766701, 0.0142412540, 0.0175118614, -0.0177808832, -0.0242957044, -0.0047759074, 0.0196136199, 0.0388718285, -0.0515795536, -0.0168282110, 0.0256806072, 0.0111904209, 0.0326527581, -0.0144281350, 0.0117663788, 0.0245106779, -0.0041003814, -0.0028662856, -0.0011386295, -0.0131892832, -0.0241974611, -0.0149530238, -0.0220590867, -0.0110264271, 0.0161025878, 0.0123985494, 0.0063934084, 0.0050314753, 0.0267026350, 0.0042993906, 0.0099285506, 0.0040605282, 0.0291129686, -0.0010877522, -0.0008763027, -0.0129851662, -0.0213264357, 0.0289131198, 0.0101853032, -0.0564576648, 0.0092122555, 0.0318190381, 0.0495621748, 0.0021071078, -0.0157522727, 0.0178153347, -0.0169998053, -0.0015656869, 0.0035619636, -0.0246286467, 0.0224612933, 0.0036843743, 0.0247736201, 0.0188424308, 0.0122878617, 0.0357825980, 0.0107589765, 0.0159015544, 0.0282775890, -0.0204655100, 0.0113176145, 0.0169283859, 0.0228662770, -0.0152399074, -0.0251544788, 0.0078814439, -0.0072508515, 0.0177042540, -0.0012800531, 0.0166900437, 0.0205514766, 0.0086336061, -0.0092728836, 0.0322811380, 0.0436772853, -0.0275808033, -0.0190611742, -0.0059875571, -0.0103499275, 0.0070967060, 0.0014263504, 0.0125675639, 0.0015283164, -0.0047197249, -0.0475072898, 0.0471117869, -0.0261626486, 0.0023590571, -0.0188309532, 0.0242554583, 0.0383738689, 0.0595428869, -0.0054160506, -0.0001290533, 0.0165250525, 0.0203180611, 0.0189442709, -0.0230498519, 0.0054204613, -0.0199034102, 0.0056451941, 0.0213943124, 0.0400037058, 0.0280765016, -0.0078618517, 0.0291781723, -0.0040975208, -0.0026863674, 0.0294860974, 0.0052873571, 0.0179434437, -0.0367797092, -0.0281907599, 0.0114944791, 0.0032457334, 0.0439106114, -0.0130226426, -0.0022016128, -0.0231888313, 0.0120443609, -0.0071459641, 0.0089466199, -0.0124031864, 0.0072590327, -0.0238386299, -0.0208000392, 0.0257367268, -0.0118014310, 0.0011793175, -0.0161544420, 0.0038845476, 0.0248001982, -0.0241700113, -0.0038843881, 0.0006180615, 0.0145307435, -0.0044895709, 0.0289430525, -0.0009557566, -0.0169308074, 0.0183378756, 0.0272939727, 0.0187885221, 0.0102685299, -0.0033259764, -0.0272926576, -0.0216808431, -0.0100659430, 0.0541051291, 0.0069484464, -0.0144283669, 0.0070855673, -0.0123472326, 0.0279854611, 0.0196622368, 0.0065063573, 0.0101949396, 0.0495581478, 0.0439988822, 0.0256988388, 0.0233609807, 0.0208264347, 0.0298978742, 0.0141877923, 0.0008157956, -0.0189188458, 0.0163062196, 0.0263931975, -0.0028705120, 0.0115302745, -0.0018537195, 0.0270177405, 0.0278102923, 0.0220515076, -0.0123248911, -0.0292525049, 0.0444736779, -0.0030137023, -0.0297256969, 0.0167196207, -0.0284666531, -0.0135880383, 0.0308133848, 0.0334063321, -0.0195688512, -0.0016082262, -0.0527663380, 0.0412600935, -0.0107177375, -0.0027687184, 0.0066746753, -0.0274048448, -0.0215639398, -0.0276568942, -0.0229825638, 0.0252686124, -0.0180816390, -0.0035210929, 0.0017065516, 0.0155816181, 0.0281250086, -0.0209402926, -0.0192954987, 0.0483102687, 0.0264886785, -0.0021367888, -0.0065521440, 0.0303171352, 0.0316043794, 0.0199464560, -0.0006648205, 0.0088860942, -0.0136016803, -0.0000798923, -0.0110081257, -0.0060743862, -0.0037512716, 0.0338920951, 0.0151307760, -0.0062018456, 0.0071654543, 0.0291407015, -0.0047828960, 0.0137856221, -0.0077319234, 0.0090935323, -0.0064037368, -0.0098465858, -0.0242117904, 0.0050505912, 0.0238584485, -0.0125119090, -0.0090882946, -0.0115615297, -0.0065155188, -0.0076045790, -0.0237620510, -0.0510539636, 0.0029226304, -0.0327093452, 0.0345569551, 0.0449850671, -0.0355528221, 0.0121218851, 0.0388626531, 0.0405896679, -0.0134372814, -0.0290274881, 0.0086732544, -0.0003479191, 0.0262898374, -0.0025492290, 0.0205073804, -0.0020790121, 0.0162029788, 0.0043637152, 0.0187948700, 0.0144874826, -0.0013734417, 0.0295308474, 0.0238411743, -0.0023039188, -0.0461474247, -0.0020539232, 0.0264935065, -0.0037198695, 0.0157281104, -0.0068251528, 0.0267695524, -0.0175389145, 0.0028970547, 0.0256626587, 0.0244501363, -0.0089622028, -0.0333371647, 0.0135951536, -0.0078040585, 0.0412352271, 0.0075549567, 0.0087665338, 0.0174558591, -0.0110550150, -0.0028942453, -0.0066911411, 0.0116493087, 0.0016123345, -0.0499776192, 0.0129503962, 0.0204448309, 0.0087942230, -0.0196302105, -0.0342474021, -0.0031039263, 0.0164243821, -0.0005994887, 0.0261726324, -0.0064335754, 0.0360773690, 0.0329874903, -0.0341329165, 0.0536338985, 0.0116892057, -0.0186604094, -0.0178901181, 0.0201692134, -0.0064369189, 0.0328209288, 0.0270902943, -0.0023362830, -0.0158353429, 0.0064056162, 0.0234815776, -0.0171050839, 0.0084627047, 0.0004859645, 0.0254185647, 0.0350511260, 0.0065608956, 0.0063009174, -0.0094942953, 0.0378823578, 0.0303272605, 0.0004348669, 0.0049123354, -0.0663316250, 0.0110075623, -0.0038085023, 0.0652643740, -0.0056524356, -0.0341873839, 0.0437828600, 0.0138919596, -0.0021904784, 0.0206681248, 0.0214843042, 0.0163503867, 0.0064704306, 0.0207631607, 0.0015943913, 0.0245322771, 0.0105044954, -0.0057174731, -0.0015232980, 0.0351439230, 0.0557372347, -0.0183982328, 0.0027158735, 0.0587644875, -0.0109098833, 0.0011180928, 0.0083355242, 0.0358492695, 0.0141335875, 0.0084010810, -0.0029285357, -0.0368598066, 0.0392808542, -0.0067854500, 0.0144244945, 0.0106396023};

#endif

#endif
