//Numpy array shape [256]
//Min -0.054244853556
//Max 0.081093326211
//Number of zeros 0

#ifndef B4_H_
#define B4_H_

#ifndef __SYNTHESIS__
dense_1_bias_t b4[256];
#else
dense_1_bias_t b4[256] = {0.0215358287, -0.0114675201, -0.0230653882, -0.0150657352, -0.0131167239, 0.0303161331, -0.0201262813, -0.0167248845, -0.0003833208, 0.0337051786, -0.0203831457, -0.0127106365, -0.0031124263, 0.0092506576, 0.0004643471, -0.0139181968, 0.0140216220, -0.0187957063, 0.0423713699, 0.0190361794, 0.0306019858, 0.0039419765, -0.0377315953, -0.0227117203, 0.0204611756, -0.0057740584, 0.0052125091, 0.0423593931, 0.0415549986, -0.0199445281, -0.0258467086, -0.0250593126, -0.0217242781, -0.0225675069, 0.0345445573, 0.0227432605, 0.0448106788, -0.0122777345, 0.0349985808, 0.0005786460, 0.0327234752, -0.0002742192, 0.0389577299, -0.0049312580, 0.0446878634, 0.0072274418, 0.0712392330, 0.0028306278, 0.0162396617, -0.0345670320, 0.0490277596, 0.0200304203, -0.0240238067, -0.0151216527, 0.0420769081, 0.0136204623, 0.0166284367, -0.0030564263, 0.0426459201, 0.0254511498, -0.0518605709, 0.0181591436, 0.0146903042, -0.0203488041, 0.0273990370, -0.0061072689, -0.0435063727, 0.0306340139, -0.0085400091, 0.0028524161, 0.0215958711, 0.0348053537, -0.0107102357, -0.0453638621, 0.0163821876, -0.0236104913, 0.0119494945, 0.0257196203, 0.0116600543, -0.0239118952, 0.0249993037, 0.0356433429, 0.0158157069, -0.0065429602, 0.0249915905, 0.0329659991, -0.0219960380, 0.0023792749, 0.0200030860, -0.0062638642, 0.0565256067, 0.0436831675, -0.0128281424, -0.0027679468, -0.0000831762, -0.0336190686, 0.0271186605, -0.0542448536, 0.0004250686, -0.0065825707, 0.0507890359, 0.0272347052, 0.0345574245, 0.0458515659, 0.0195405316, 0.0413268283, 0.0152191781, -0.0175268725, -0.0067822556, -0.0261092763, 0.0196999218, -0.0023300168, 0.0372979641, 0.0402426906, 0.0349755920, 0.0051276195, 0.0301987715, 0.0032038414, 0.0299354456, -0.0195435174, -0.0392620116, 0.0358715169, 0.0435076132, -0.0312910713, 0.0146625023, -0.0251018927, -0.0101553071, 0.0414879285, 0.0183426682, 0.0084307147, -0.0117388768, -0.0259607472, 0.0413587578, -0.0024124137, -0.0030812656, 0.0274449345, 0.0220852997, 0.0577780418, 0.0102373632, 0.0073106391, -0.0218836702, 0.0279382281, 0.0316434056, 0.0109706046, -0.0113075944, -0.0059375963, 0.0009609004, 0.0293583628, 0.0337590277, 0.0482810773, 0.0132182324, -0.0263554268, -0.0044473428, -0.0118382080, 0.0160749480, 0.0047861882, 0.0224934947, -0.0197894666, -0.0171311125, 0.0113223083, 0.0278373249, 0.0002536156, 0.0132488925, -0.0393587574, -0.0152379917, -0.0171976686, 0.0141365631, -0.0194319468, -0.0085912161, -0.0163792521, 0.0632870719, -0.0182889737, 0.0118817873, -0.0065102451, 0.0306161512, -0.0249442793, -0.0013059727, -0.0047475938, 0.0171680618, -0.0187458172, 0.0525379814, 0.0104177743, -0.0279430747, -0.0255554914, 0.0069383536, -0.0255849063, 0.0013865444, 0.0118369916, 0.0453707539, 0.0352818221, 0.0150898732, 0.0261163283, -0.0125787547, -0.0118180718, 0.0092037525, -0.0051526059, 0.0343979448, -0.0188028198, -0.0123667149, -0.0181458499, -0.0112217180, 0.0509468429, -0.0148513084, -0.0048483824, -0.0187328849, -0.0124585247, 0.0147771323, 0.0420826524, -0.0084534660, 0.0075060171, -0.0311643761, -0.0286787767, 0.0343783908, -0.0251595471, 0.0387502499, 0.0028757241, 0.0184683856, 0.0379773043, -0.0377604328, 0.0287909470, -0.0329731442, -0.0060043363, -0.0121045029, -0.0055205058, 0.0066776313, 0.0442353450, -0.0350938365, 0.0385046825, 0.0231082756, 0.0257516187, 0.0275107138, -0.0366172977, 0.0104374466, 0.0060352935, 0.0162017811, 0.0410878696, -0.0149918115, 0.0164390616, 0.0351964012, 0.0416367836, -0.0041111554, -0.0255048964, 0.0276225358, 0.0091296202, 0.0181259438, -0.0254557561, 0.0810933262, 0.0085465843, 0.0496499762, -0.0195645355, -0.0133017376, -0.0033877953, 0.0297767725, -0.0209198538, -0.0177891161, -0.0174747333};

#endif

#endif
