//Numpy array shape [64, 10]
//Min -0.403711169958
//Max 0.323734730482
//Number of zeros 0

#ifndef W10_H_
#define W10_H_

#ifndef __SYNTHESIS__
dense_4_weight_t w10[640];
#else
dense_4_weight_t w10[640] = {-0.0273897778, -0.1163502187, -0.2478584051, 0.0267218668, -0.1636356711, -0.0513165183, 0.2567795217, -0.2098843008, -0.1586017013, -0.0054710177, 0.2184085250, -0.2841825485, -0.0823598430, -0.0183797311, 0.0114244455, -0.0011583311, 0.0857799873, 0.1651513427, -0.1870314181, 0.0560661405, -0.0312645808, -0.2160707414, -0.1006169766, 0.1129741594, 0.3165772557, -0.1007080004, 0.1856575608, -0.0815782025, -0.0856112838, -0.1661523581, 0.1752211154, -0.0296888817, 0.1907681972, -0.2345873564, -0.2868768573, 0.1793176085, 0.1604871154, -0.0501716435, -0.1580656320, 0.1521310657, -0.1590359360, -0.0564359911, 0.1971464306, 0.1339067072, -0.2691853046, -0.2173746377, -0.0928521082, 0.2870879173, -0.0841603279, -0.0017627970, 0.2633818686, -0.1014637277, 0.0254536942, 0.3100770414, 0.1651820838, -0.3001036942, -0.0413612239, 0.1571919769, 0.0421212390, 0.1052469090, 0.1119108945, -0.2637939751, 0.1239189804, -0.1568568647, -0.2253428847, -0.2672931552, 0.1755829006, -0.1315049082, 0.3111920655, 0.2883242667, 0.1763441265, 0.1356737614, -0.2162734568, 0.0851336494, 0.1778706461, 0.2597699761, -0.2478313297, 0.0136738960, -0.1867144108, -0.0216803849, -0.1677231491, -0.1235933229, 0.2648099065, -0.0951067656, -0.1819553971, -0.0650769547, -0.2517973781, 0.2611160576, 0.0395072699, -0.1006571278, 0.0511105768, -0.2523628473, -0.2523357272, -0.0153030902, -0.0324085280, -0.0211137999, -0.1996473223, 0.2028855681, -0.0832543448, -0.2381715924, -0.1518588811, 0.0659807771, 0.0538176633, -0.2067999542, 0.1355136782, -0.1182994246, -0.2641379535, -0.3079763651, -0.0316999033, 0.0343685336, 0.2377517819, 0.0770606548, 0.0016690340, -0.0422831103, 0.1343894750, -0.1371877640, -0.2620180249, 0.0425792262, -0.3043600023, -0.1722508073, 0.0182478856, 0.0532477163, 0.1572953165, 0.2724272311, 0.2302758694, 0.2606001496, 0.1228034273, -0.0135013787, -0.0875844210, 0.1399353445, -0.2833342254, 0.2384987473, -0.3313645422, 0.2673021257, 0.3062794209, 0.2250611037, 0.2265003324, 0.1505713910, -0.1835210770, 0.0680531934, 0.0079385145, -0.2981678843, 0.0121907312, -0.3322229087, 0.0284358300, 0.1956053674, 0.0932109207, 0.0031324644, 0.1752826273, -0.1916621029, -0.1362201869, 0.2428186089, -0.2979719341, 0.0735237598, -0.2640289068, 0.0975960642, 0.0910861865, 0.0559861809, 0.2824217379, -0.0903192759, -0.1838019341, -0.2745944858, 0.1364680082, -0.2991679609, 0.2200568616, -0.1299079955, 0.2804317474, -0.0006639100, -0.2002096027, 0.3183484375, 0.0671219975, 0.1087683365, -0.1670777798, 0.1055398583, -0.2927390635, -0.0353756510, -0.1183625013, -0.3028463125, 0.0717329830, -0.2858339548, -0.0518234335, -0.1038170531, -0.0265948456, -0.1428286433, 0.0452323854, -0.0121960891, -0.0788009316, 0.1665301472, 0.0912644267, 0.0632882565, -0.0082742209, -0.1815659851, 0.2402586192, -0.1324009448, -0.3971561193, 0.0847328603, 0.1321008950, 0.0266436450, -0.2950979471, -0.2650467157, 0.1753276885, -0.0222113747, 0.1555729806, -0.0934088752, 0.1474061757, 0.1214150414, -0.2447102964, -0.0288452357, 0.2425330728, -0.2645358145, -0.0684498325, -0.1290495545, -0.3084574342, -0.1285677850, 0.1166022196, -0.1774198413, 0.0644384921, -0.0976290405, -0.2771153450, 0.2024370432, -0.0953079313, 0.1402178109, -0.0227092132, 0.2175511122, 0.1288566142, 0.2194023728, -0.0047209016, -0.3154970109, -0.2723230720, -0.2820761204, 0.2811786830, 0.1600682288, -0.0085819168, 0.0051847431, -0.2487009019, -0.0035501719, 0.0678289533, 0.1250485182, 0.1493213326, 0.1589777768, -0.3427285552, -0.2186495215, -0.0467969365, 0.0912231132, 0.2178970128, -0.3455798626, -0.1579883248, -0.0862163305, -0.1106867567, -0.0658771396, 0.1545011103, -0.3117770553, -0.0069183367, -0.2425694466, -0.0067297881, -0.0270642098, 0.1364551485, -0.2058969289, 0.0527288690, -0.1917597204, -0.1770577431, 0.1879382432, 0.2113748044, 0.2312545180, 0.2270946801, 0.0199978948, -0.3282781243, -0.1824209988, -0.2152473181, -0.1325147599, -0.1102239639, 0.2093340009, 0.2637380660, -0.1940546930, 0.0333580077, -0.2681564689, 0.0036107597, -0.0459634028, -0.0083888127, -0.0029560348, -0.0539754331, 0.1127227545, 0.2958874702, 0.1695938706, -0.3397243917, 0.2736115456, -0.2220165730, 0.1390798390, -0.0634376407, -0.1239491403, -0.2584744692, 0.2781605124, 0.2445544302, 0.0901689529, 0.0522763021, -0.0181345474, 0.0666328594, -0.0154413776, 0.1596146822, 0.0234105140, -0.1921694726, 0.2490886152, -0.0566213690, -0.3226236403, -0.1801152378, -0.0917888656, -0.2316862792, 0.3237347305, 0.2703407705, -0.0315040648, -0.0441592932, 0.2256391346, -0.0190041270, -0.1187779754, -0.0626310706, 0.0221926104, 0.2859046459, 0.1183188856, 0.0373767242, -0.0205210354, -0.0623734407, 0.2813030183, 0.0611910336, -0.0641616806, -0.1009583548, -0.1096392870, -0.2337784767, 0.0231275894, -0.0383979455, -0.1374401450, -0.0945732296, -0.0876881108, 0.2044337243, 0.1664876640, -0.1466712207, 0.1725181937, -0.1562252492, -0.2508363426, -0.2987434566, 0.2751143575, -0.0904478058, -0.0477292873, -0.1806093454, 0.2667910457, -0.1171432957, 0.1220946684, -0.0096196551, -0.2014446110, 0.0647208318, 0.1981641054, 0.0435423069, 0.1935899556, -0.1191272214, 0.1516790539, 0.2551769018, 0.1031601503, -0.0999994427, -0.2623034120, -0.3080556691, -0.1478239000, 0.2731033862, -0.2521847785, 0.1611918509, 0.2846518755, 0.0271861088, 0.2295344621, 0.1578812301, -0.1363311261, -0.3037627935, 0.0261125304, 0.2671076953, 0.2200181633, 0.0471042283, -0.2718951702, -0.2942106426, 0.0101407645, -0.2258046865, 0.0100308452, -0.2282755673, 0.0631121919, 0.2171732038, -0.2386659086, -0.1060128957, -0.1311235130, -0.1752667576, 0.2880804837, -0.2279797196, 0.2340536565, -0.0871122181, -0.3124577999, -0.1412678510, -0.2247339338, -0.1622626632, -0.0887278691, -0.0397300161, -0.1650820673, -0.0016201908, 0.1148526743, 0.0909703672, -0.3278268576, 0.2282817811, -0.2405956388, 0.0232850090, -0.0114981458, -0.1718090326, -0.0025337553, 0.1013519838, -0.1771874279, -0.0299341716, -0.1362907887, 0.2332864553, -0.3503707349, -0.1072510183, 0.1738770604, -0.2124673277, 0.0055643059, 0.1836062074, -0.0611329824, -0.1100661755, 0.2442674190, 0.0933767259, -0.0401579514, -0.2608723640, -0.2668188810, 0.2359425128, -0.0987053812, 0.1170237437, -0.1255555004, -0.2308774889, -0.2715305388, -0.2155151665, -0.3097125292, 0.1572272182, 0.0656955019, -0.2862101495, 0.2803885043, 0.1126106903, 0.1363857239, -0.2505097389, -0.0355630554, -0.2963683009, -0.1902542114, 0.1796355247, 0.2842996716, -0.1166632771, -0.1242783219, 0.3173693717, -0.2498190850, 0.1945768148, -0.4037111700, 0.1470621526, -0.2470295727, -0.0159004070, 0.2627518177, -0.1548754722, 0.0131956572, -0.0646821931, -0.0943546891, -0.0455611795, 0.2690344751, -0.1878246516, -0.1475846022, 0.0611502565, 0.2524119318, 0.2004800886, 0.1171417907, 0.2079180926, -0.2361255288, -0.0492510162, 0.1071745157, -0.3357074559, 0.1466538161, 0.2053433955, -0.3062981367, -0.1589800417, 0.2728492618, 0.1469202191, -0.2057116479, 0.0540424883, 0.1957407892, 0.1739372760, -0.2542085648, 0.1506362557, 0.2134496272, 0.1764959693, 0.1085024178, 0.1687428802, 0.2057203799, 0.0295336861, 0.0483694971, 0.0004965013, 0.1309543699, 0.2769058645, -0.3022799194, -0.1480916739, -0.2727881968, -0.0431949869, 0.2858223021, 0.0756191015, -0.0578815378, -0.1848846078, 0.3033472300, -0.2272764146, -0.1956033260, 0.2371779680, -0.2409278005, 0.0192886442, -0.0718537867, -0.0931068137, -0.1705444902, -0.0854174346, 0.0411247946, 0.0658019558, -0.1085326672, 0.0389176682, 0.0236739647, -0.1566455811, 0.0033156278, 0.1626131386, -0.1862039119, -0.0782109648, 0.1937479228, 0.2315195799, -0.1110357046, 0.1318734586, 0.0962746963, -0.0889167041, -0.3224821091, -0.0755041614, -0.3099907339, 0.0779103935, 0.2885583341, -0.1020819172, -0.1300068796, -0.0428097397, -0.1188079566, -0.0843934342, 0.1816978455, -0.0903568268, 0.0621341467, 0.2806251645, 0.0901337489, -0.1848807633, -0.1347828060, -0.0813271254, 0.0357110091, 0.2761961520, -0.2657307088, 0.0655470192, 0.0215040408, -0.2299051583, -0.1647975892, -0.1057153866, -0.1551176161, 0.1385716200, -0.1669809222, -0.1179789901, 0.0056813941, 0.0453340448, -0.0724971518, -0.1703211069, 0.1371122599, -0.2871770263, 0.1004298106, 0.0213283617, 0.1089960709, 0.2479701638, 0.0303099304, 0.1990492195, 0.0946952924, 0.3105248809, 0.0174248628, -0.0683308914, 0.2709988952, -0.2745428979, 0.0775739253, -0.1765642464, -0.0451569669, -0.1219615266, -0.0676138848, 0.2438235581, 0.0011561939, -0.2702569664, 0.0647726357, -0.2073195577, 0.1760376245, -0.0726175085, 0.2880565226, 0.2106196135, -0.2438744307, 0.2831762731, 0.0432633311, 0.1866535693, 0.2181842178, -0.1936681271, -0.1815304905, 0.2259520590, -0.1906583458, 0.0971440151, -0.3427779377, -0.1252877861, 0.2607518435, -0.0039268127, 0.1539937705, 0.0256974231, -0.0012826541, 0.0418657362, 0.1774282008, -0.0639253855, -0.0866516232, -0.0624390803, 0.0161581542, 0.1924877763, 0.1214821339, -0.3169786930, -0.1418216228, -0.2268612683, -0.0455994606, -0.0211911835, 0.1177225336, 0.1386685222, -0.1202388927, -0.1612161994, -0.0033374941, 0.0132704377, 0.0544543937, 0.3099398315, -0.2001281232, 0.1899846494, -0.2467715889, -0.0226243231, 0.2708444893, -0.1248420924, 0.2078200430, 0.1725781113, -0.1195348650, 0.1377107799, -0.2622911334, -0.2747614384, -0.0214385111};

#endif

#endif
