//Numpy array shape [128]
//Min -0.042192392051
//Max 0.068499520421
//Number of zeros 0

#ifndef B6_H_
#define B6_H_

#ifndef __SYNTHESIS__
dense_2_bias_t b6[128];
#else
dense_2_bias_t b6[128] = {0.0435915329, -0.0180953741, 0.0060338024, -0.0131116593, 0.0058218562, 0.0252268855, 0.0230349321, -0.0014747638, -0.0137299532, 0.0312788188, -0.0056969137, 0.0105528552, 0.0143429572, 0.0147799309, -0.0140801091, -0.0297832787, -0.0028703420, -0.0184085425, 0.0444935076, 0.0110308873, 0.0180052612, -0.0166827589, -0.0208645109, 0.0306857787, -0.0044634216, 0.0082456600, -0.0055432548, -0.0119878342, 0.0160098728, -0.0238328502, -0.0027928974, 0.0297951959, -0.0043277065, -0.0089396816, -0.0016957110, -0.0093645090, 0.0283247791, 0.0388301909, -0.0096320314, 0.0375000872, 0.0069493540, 0.0229732078, -0.0128104798, 0.0120727113, -0.0083889663, -0.0228405464, -0.0140135912, 0.0168726146, -0.0134719089, 0.0102269892, 0.0365247838, -0.0023308368, -0.0145284729, -0.0098032812, 0.0065802089, 0.0256542079, 0.0270730332, 0.0577164143, -0.0204086900, 0.0051406603, 0.0024888183, 0.0586446822, -0.0228484441, 0.0191168096, 0.0090190023, 0.0411626995, 0.0211977940, -0.0141028566, 0.0085992180, 0.0224669445, 0.0519283228, -0.0243618935, 0.0360523686, 0.0192709602, 0.0195958763, 0.0259511713, 0.0406132750, 0.0098118214, 0.0363191180, 0.0088866539, 0.0256645773, -0.0252400506, 0.0218214970, 0.0442857109, 0.0187743101, 0.0226587299, 0.0169776510, -0.0049398174, 0.0409834124, -0.0112445848, -0.0133714359, 0.0408555083, -0.0173487738, 0.0300926529, 0.0056540370, 0.0190032385, 0.0297024641, 0.0293048006, 0.0684995204, -0.0010937457, 0.0243815072, -0.0121891554, 0.0096541373, -0.0341541767, 0.0336732753, 0.0243589077, 0.0050612087, -0.0227353740, -0.0095531587, -0.0029727616, 0.0612319931, -0.0083388453, 0.0447626002, 0.0297469031, -0.0152759422, -0.0094555244, 0.0440784320, -0.0421923921, 0.0405549854, -0.0139993373, 0.0132036600, 0.0058880574, 0.0024656232, -0.0249247793, 0.0080698505, 0.0385485888, -0.0014834222, -0.0113155888};

#endif

#endif
