//Numpy array shape [64]
//Min -0.038729097694
//Max 0.055360373110
//Number of zeros 1

#ifndef B8_H_
#define B8_H_

#ifndef __SYNTHESIS__
dense_3_bias_t b8[64];
#else
dense_3_bias_t b8[64] = {-0.0000466474, 0.0274842754, 0.0419370607, 0.0148782870, 0.0015445269, 0.0154311964, 0.0426057987, -0.0086530494, 0.0064413599, -0.0068075969, 0.0160792377, 0.0267021507, 0.0404905677, 0.0037824248, 0.0097860722, 0.0180454291, -0.0249690376, 0.0009736168, 0.0279389136, 0.0553603731, -0.0181843378, -0.0150824375, 0.0207167901, 0.0092183892, -0.0274094883, 0.0523637272, -0.0014106851, 0.0251297411, 0.0377803780, 0.0007637546, 0.0076179872, -0.0097333798, -0.0387290977, 0.0265833959, 0.0404240638, 0.0010935992, 0.0000000000, 0.0520523265, -0.0097545460, -0.0289903637, 0.0004100880, 0.0008207654, 0.0283313263, -0.0071229371, -0.0125101488, 0.0238389689, 0.0074355137, 0.0067244782, -0.0086520696, -0.0112463254, 0.0128719807, -0.0067422469, -0.0064201732, 0.0059977737, 0.0394723453, 0.0518767983, 0.0081037274, -0.0007672556, 0.0311383009, 0.0248571709, 0.0134993279, -0.0266910624, 0.0007667512, -0.0102749076};

#endif

#endif
