//Numpy array shape [256, 128]
//Min -0.303201824427
//Max 0.308332264423
//Number of zeros 0

#ifndef W6_H_
#define W6_H_

#ifndef __SYNTHESIS__
dense_2_weight_t w6[32768];
#else
dense_2_weight_t w6[32768] = {0.0347341895, -0.1006837487, 0.0122229690, -0.0343488157, -0.0836206451, 0.0259401761, 0.0116008976, -0.0133625017, 0.1455634832, 0.0302655771, 0.0289131012, 0.0686904117, -0.2130862921, -0.0846287683, 0.0626792982, -0.1334875822, 0.0821932182, 0.0072527267, 0.1186833084, 0.1052486598, -0.0442257002, 0.0411929004, -0.1225814596, -0.0209701583, 0.1328254640, -0.0439749137, 0.1167568192, 0.0638086051, -0.0510821976, 0.1028823555, -0.0341714993, -0.0522396564, -0.0569713190, -0.0474818870, 0.1564650387, 0.0046905093, 0.0171143562, -0.1109530181, 0.0031544536, 0.0314946249, 0.0949848220, 0.0356466621, 0.0770768747, -0.0635337234, -0.0110916523, -0.0787837654, 0.1059772000, 0.0173745975, 0.1007908955, 0.0013817667, 0.1280441731, 0.1034883186, 0.0019941325, 0.1066965386, -0.0230218768, -0.0216768421, 0.0282678250, -0.0220107753, -0.0874758214, -0.0699549168, -0.1786484718, 0.0058713546, 0.0035021305, 0.0908798054, 0.1532547176, 0.0912408084, 0.0463162400, 0.0307288617, -0.0255653989, 0.1380020082, 0.0093606124, 0.0821795091, -0.1146969870, -0.0294830911, 0.1279664487, -0.0153311454, -0.1018395647, 0.0469424501, 0.0410674177, -0.1004051790, 0.1044303924, 0.1139488220, 0.0307373665, -0.0855257660, -0.0698512420, 0.1269209087, -0.0371048339, -0.0567443110, -0.1528705657, -0.0313358009, 0.1366161108, -0.0248902366, 0.0208771620, -0.0265928824, 0.1582675725, -0.1129836887, 0.0085413642, 0.0611712411, 0.0155680887, -0.0392370224, 0.0263988134, 0.1743946970, -0.0975908935, 0.1330763102, -0.0522954129, 0.1073988602, -0.0505577177, 0.0454697832, 0.1404393911, 0.0837748051, 0.0825939253, -0.0040308214, -0.0968266800, -0.0205824487, 0.0558833331, 0.0688343868, -0.1126857474, -0.0655963868, 0.0998561829, 0.0220059678, 0.0044719675, -0.0398781970, 0.0660212487, -0.0139892781, -0.0629699752, 0.0366938524, -0.1226311177, -0.0650501847, 0.0593439415, 0.0337916166, -0.0652625114, 0.0160432942, 0.1303732246, -0.0837559402, -0.0243993178, 0.0762983486, -0.1032016873, -0.0125678824, -0.0378662013, 0.0591381453, 0.0360015817, 0.0598419718, -0.0093506826, 0.0085015055, 0.0276865549, -0.0517764427, 0.0054653282, 0.1281679869, -0.0422661975, 0.1788587272, 0.1177136227, 0.0831787959, -0.0811257139, -0.0834299251, -0.0463291816, 0.1152555496, -0.0168023072, 0.0049865134, -0.0889970958, 0.1419914365, -0.0732863843, -0.0418716148, 0.0084655723, -0.1020897329, -0.0994253010, 0.0574019738, -0.0367163531, 0.0346103422, 0.0764506385, 0.0720582381, 0.1411000192, 0.0230142511, -0.1309467703, 0.0008299851, -0.0267811399, -0.0715472028, 0.1138273329, -0.0826705694, 0.1124549359, 0.0672237799, 0.1463842690, -0.0760698915, -0.0014776955, 0.0117160492, 0.1581361145, -0.1539433748, -0.0675679520, 0.1492436975, -0.0394793190, -0.0743368417, -0.0622887090, 0.0400138088, -0.0173722729, 0.0201389510, -0.0350440741, -0.0810369849, 0.1523249298, 0.1553200334, -0.0197786372, -0.1164579764, -0.1429698020, 0.0975484103, 0.1454493403, -0.0522388965, 0.0216278061, -0.1445969343, 0.0226968862, 0.0132192364, 0.0997160822, -0.1423456371, 0.0817705691, -0.0123198563, -0.0884106085, -0.1646388322, -0.0391213484, -0.0995878503, -0.0578559116, 0.0699962825, 0.0904194191, 0.0611407831, -0.0485875234, -0.0716623813, -0.0378764309, 0.1260157526, 0.0000608519, 0.0048556472, 0.0245862808, 0.0744805783, 0.1461971104, -0.0386933424, 0.0973003507, -0.0731094033, 0.0611731783, -0.0868472904, -0.1154401749, -0.0296681058, -0.0568508767, 0.1086735427, -0.0345873684, 0.0872969851, 0.1002226397, 0.0125629511, -0.0554526038, -0.0504928455, -0.0602199733, 0.0041135866, 0.1291313022, 0.1027836651, 0.0841475502, -0.1847708970, -0.0448266342, -0.0409372188, -0.0970558077, 0.0446271151, -0.0272572283, 0.0716862082, -0.1042156890, 0.0374450311, -0.0841896310, -0.0713902563, -0.0476992652, -0.1139606088, -0.0084447525, 0.0226259939, 0.0872533470, 0.0858982727, -0.0553258471, 0.0214584656, 0.0207196157, -0.0113644525, 0.0672010407, 0.0315698050, 0.1525006145, 0.0285116769, 0.0247382168, 0.0296981763, 0.0343663171, -0.0656859651, -0.0387322418, -0.0137118883, -0.0424380265, 0.0288941767, -0.1117388681, 0.0149836140, -0.0212508701, 0.1039772257, 0.0478441231, -0.1607332677, -0.1103095785, -0.0842644200, 0.0541887395, -0.1283008605, 0.0891678929, 0.0791670978, 0.0298789572, -0.0082557695, 0.1462258101, -0.0398460254, 0.0340891220, 0.1266243458, -0.0424028598, 0.1097999290, -0.0988645777, -0.0338872001, -0.1395608634, 0.0371853784, 0.0932271108, 0.0392881371, -0.0320517980, 0.0282566063, 0.0277019572, -0.0445526130, -0.1159580275, 0.0271565039, -0.0739805251, 0.1226482019, 0.0785502046, 0.0350537933, -0.0843940005, 0.1150306240, -0.0676470697, 0.0411498100, 0.0253809523, 0.0252957195, 0.0757590756, -0.0463897102, -0.0313790739, -0.0225749966, -0.0606605858, 0.0404253043, 0.0108325165, 0.0205182564, 0.1426148415, -0.1170799062, 0.0222630948, 0.0237490181, -0.0221199226, 0.0489590839, 0.0291735120, 0.0849442333, -0.1104874760, 0.0273473486, 0.0372790918, 0.1070557162, 0.0058862334, 0.1447883099, -0.0781958699, -0.1262140423, -0.0738535672, 0.0837734342, 0.0954589546, 0.0853364244, -0.1341658086, 0.0759370998, 0.0056497236, -0.0551791415, 0.0166480243, 0.0414164551, 0.0069431858, 0.0633449182, -0.0511290133, -0.0685661435, 0.0190362688, 0.1824215800, 0.0084574949, -0.0916089863, 0.0542024784, -0.0334278978, 0.0025766189, 0.1254523546, 0.0523023121, 0.0539380275, -0.1310104281, 0.0294238739, -0.0221343189, 0.0784934461, 0.0929955840, 0.0434330180, 0.1102302819, 0.0550002158, -0.0286849178, -0.0498124994, 0.0552186966, -0.1859149337, 0.0501202494, -0.0164893400, -0.0573777370, 0.1257908642, -0.0405629128, -0.1206268072, -0.0051444778, 0.0032181563, -0.0391921997, 0.0252250694, 0.0265786238, -0.0238263234, 0.0415313356, 0.0743548647, -0.1308998764, -0.0206756815, 0.1479139775, -0.0868210718, 0.0922694653, -0.2157296389, 0.1607841998, 0.1490647346, -0.0824692920, 0.0157349836, 0.1254876256, 0.0107163498, 0.1122342497, 0.0329792686, -0.0473839194, -0.0367348269, 0.0298599266, -0.0926999673, -0.0519108996, 0.1113126874, -0.1306639761, 0.0763904676, 0.0956868380, -0.0045592710, -0.0800617412, 0.0037598400, 0.1080024093, -0.0532249585, -0.0171410199, -0.0559000261, 0.1057260334, -0.0654822811, -0.1506125629, 0.1225397363, -0.1004806384, -0.0499813743, 0.1560676098, -0.0092907771, -0.1420819759, -0.1689839214, 0.0322700106, -0.0424523689, -0.0169579443, 0.0447639860, -0.1387153715, 0.0713465437, -0.1273001879, 0.0831479207, -0.1056666449, -0.0779864639, -0.0199424606, -0.0718818307, -0.1880757958, 0.1887049079, -0.1111370623, 0.0141579127, -0.0470689572, 0.0081141014, -0.0060014627, 0.0308697280, -0.0542303100, -0.0111772837, -0.1087971181, 0.0102385515, 0.0404258221, 0.0088143134, 0.0186769720, -0.0974643826, -0.1134268790, -0.1637501419, -0.0753592029, -0.0685282573, -0.0477853417, 0.1178293750, 0.0236092415, 0.1169224158, 0.1171601713, 0.0769795626, -0.0584924631, 0.0617993996, 0.1652041078, -0.0571250133, 0.0180758741, -0.1218502820, -0.0585997626, 0.0791620687, 0.1520914137, 0.0607094541, -0.0852138028, -0.0982623324, 0.0154480115, -0.0737462342, -0.0477146804, -0.0713840574, -0.0232357923, 0.0494215935, -0.0872207507, 0.0254879408, -0.0154321846, -0.0117615741, -0.1596180201, -0.0663801879, 0.0565622188, 0.1328240782, -0.1438691318, -0.1009593979, -0.1115840748, 0.1091726646, 0.0410931185, -0.0968144834, 0.0889223740, 0.0458448343, 0.0524854362, 0.1737408489, -0.1220029742, 0.0651915967, -0.0044231056, 0.1275579929, -0.0247057714, -0.0823982358, -0.0452621803, 0.1388299167, 0.0533442087, 0.1272748411, 0.0214994904, -0.1117788479, -0.1172181666, 0.0002167889, 0.1167294830, -0.1485260874, 0.0247269459, -0.0585358888, 0.0212330762, -0.1011148170, -0.0487515777, 0.1137974039, 0.1130233705, 0.0693139359, 0.0890536159, -0.0069397851, -0.0136418762, 0.0635718033, -0.0245959759, -0.0471952111, 0.0587553084, 0.0103089167, 0.0388731956, 0.0101572685, 0.0713088661, 0.0330736935, 0.0909904018, -0.0519305170, 0.0866609737, 0.0827187374, -0.0578995533, -0.1235959604, -0.1003345326, -0.0980318114, 0.0764991939, 0.0170237552, 0.0148689868, -0.0623082183, -0.0186559577, -0.0222084764, -0.0909500271, 0.0344375931, -0.0981663242, 0.0488936342, 0.0356917381, 0.1201170981, 0.0344440490, -0.0652736798, 0.0174321122, -0.0481634401, 0.1078349426, -0.1544499993, 0.1260496229, -0.1104889736, 0.0124171246, -0.0526931211, 0.2177029550, 0.0328237824, -0.0142528107, 0.0188364685, 0.0306821689, -0.1198445112, -0.0096352678, -0.1223894581, 0.0954002813, -0.0334586650, -0.0041011656, 0.0110355914, 0.0529695861, 0.1028022021, -0.0310949236, -0.0836557969, -0.0284844339, 0.0328413099, -0.0333985724, 0.0506958738, -0.0560816564, -0.1323053241, 0.0247276314, -0.0337464213, -0.1048909575, 0.1225922182, -0.0490175337, 0.0036237894, -0.0463227592, 0.0419909060, 0.1449916810, 0.1099481732, -0.0414246544, 0.0472536609, 0.0802328959, 0.0377736948, 0.0004483986, -0.0435966924, -0.0203778502, 0.0129906181, 0.0794569105, 0.0370824486, -0.0623942018, 0.0905139223, -0.0628142580, 0.0539520383, -0.0938280970, -0.0694098994, 0.1051486656, 0.0197492931, -0.1199268550, 0.0831720978, 0.0401518941, -0.0872226134, 0.2101067305, -0.0015259209, 0.0100310743, 0.0716056898, -0.0152564002, 0.0413019247, -0.0586276986, 0.1073051766, -0.0192204136, 0.1193677783, -0.0011261343, -0.0681166351, -0.0505772270, 0.0138355820, 0.0731943995, 0.0536399223, -0.1185426638, -0.0361382179, 0.1785979718, 0.0065377336, -0.1054867357, 0.1452024281, -0.0429218933, 0.0334873348, -0.0889407545, -0.0883308947, 0.0169969350, 0.0385571271, 0.0347110443, 0.0423033983, -0.0767167583, -0.1292115152, 0.1181620657, 0.0503878891, 0.1216496453, 0.0203013700, 0.0201059263, 0.0668390319, 0.2151812315, -0.1253833175, -0.1324504018, -0.0622904040, 0.0676740333, -0.0701161623, -0.0215057340, -0.0537313633, -0.0138054984, -0.0482458472, 0.0290960427, 0.0751419440, 0.0844692737, 0.0145791052, 0.0759311691, 0.0998056233, 0.0894195959, 0.1350529492, -0.0779928938, 0.1070551947, -0.0317748412, -0.0115383640, 0.0475719199, -0.0433311239, 0.0382194370, -0.0313665606, 0.0579276532, 0.1534493417, 0.0822086036, 0.0023280790, -0.2232160419, 0.0298120622, -0.0223962013, 0.0539648719, 0.0944162905, -0.0406649224, -0.1023021191, -0.0313377269, -0.0863228515, 0.0087269153, 0.1015942320, -0.0949306041, 0.0389487743, 0.0747828931, -0.0501668081, -0.1155410707, 0.0402699001, 0.0230482630, 0.0771218091, -0.0463909619, 0.0200211424, -0.0606411621, -0.0330118686, 0.0885129198, 0.0046297475, 0.0639380962, 0.0957184881, 0.1080994755, -0.0749896467, -0.0614863783, 0.0366812833, -0.0520970114, 0.0456871986, 0.0664157420, 0.1228238121, -0.0575535409, 0.0476524942, 0.1346135288, -0.0920252427, 0.0796044469, -0.1684226841, -0.0371762589, 0.0702980906, 0.1810482442, 0.1292735934, 0.1235736310, -0.0168383308, -0.0063656103, 0.0193643905, 0.0701858178, -0.0470873602, 0.0794886798, 0.1534050852, -0.1212286726, -0.0646187142, 0.0657826439, -0.0077061928, -0.0777063370, -0.0972628295, 0.0950600058, 0.0040640393, -0.0325166956, -0.1039105430, 0.0598139651, -0.0051271142, 0.0177851152, -0.0421517156, 0.0136430599, 0.0479427911, -0.0831224024, 0.0739726424, -0.0525497645, -0.0266882665, -0.1109375432, -0.0867413804, 0.0428821817, -0.0542901270, -0.0619352609, -0.0659039319, -0.0544476509, 0.0585030690, -0.0741950348, 0.0692068934, 0.0120726824, 0.0395724326, -0.1023220643, -0.0753507242, 0.0051682075, -0.0205084253, -0.0607740097, 0.0201420449, 0.0127284192, -0.0565211512, 0.0645949244, 0.0068637952, -0.0843431354, -0.0091241961, 0.0985220671, 0.1024654955, 0.0041756406, -0.1312766075, -0.0859693959, -0.0499929599, 0.0268062335, 0.0871479958, -0.0472638123, 0.0488203652, 0.0164357051, 0.0973461494, -0.0848797634, -0.0501231030, -0.0627929419, -0.0332575105, 0.0474942513, 0.0540291891, 0.0105668996, -0.0230201334, 0.0839751735, 0.0021020342, -0.1142155305, -0.0306370910, -0.1061561927, 0.0245338995, -0.1295352429, -0.0019969125, 0.0004245050, 0.0033511191, 0.0179891791, -0.1211302206, 0.0111712916, -0.1278263628, 0.0986511260, -0.0348741040, 0.0671520755, -0.0193757135, -0.0166771207, -0.0923888013, 0.0577842370, 0.0975874290, -0.0461146161, 0.0984797180, -0.0181739554, -0.0223155916, 0.0400336459, 0.0260190293, 0.0290176775, -0.0177343599, 0.0909096450, 0.1150177792, -0.1271245331, 0.1010712609, -0.1124923751, 0.0830423236, 0.0087037301, -0.0331685655, 0.0265127253, 0.0776401609, -0.1203475893, -0.1402396560, -0.0514250994, 0.0770241991, -0.0112531986, -0.1132424921, -0.0194336958, 0.0003360418, 0.0972810388, -0.0205012895, 0.0222488418, -0.1244500950, -0.0957011282, -0.0171079505, 0.0110669946, -0.1059066281, 0.0680668429, -0.0278960168, 0.0746055916, -0.0786336362, -0.0192278251, 0.0922543257, -0.1219486520, -0.0886904001, 0.0691036135, 0.1023804843, 0.0393277295, -0.0627522767, -0.0841770694, -0.0170840081, 0.0084729474, 0.0628760830, 0.0934661403, -0.0668132305, -0.1249689087, -0.0657135621, -0.1106760576, 0.0409360006, 0.0793326721, 0.0357856788, -0.1291859150, 0.0692032576, -0.1137470901, -0.0598173216, -0.0005400964, -0.0902472660, -0.0122431824, -0.0834033564, -0.0246742927, 0.0357079580, 0.0480948761, 0.0669161677, -0.0648160279, 0.0076736421, 0.0943294317, 0.0277799349, -0.0353760459, -0.0944346860, -0.0525324568, -0.0225609951, -0.0501547158, 0.0099530686, 0.0496985912, -0.1090119407, -0.0100541636, -0.0775139257, -0.0803243816, -0.0960192308, 0.0295980573, -0.1270947754, 0.1023966819, -0.0489341691, 0.0630112737, -0.1329104900, 0.0409441069, -0.1155729145, -0.1370270699, 0.0138507215, 0.0321390815, -0.1354895979, 0.0260380805, 0.0245792661, 0.0112101436, -0.0667112619, -0.1168208867, -0.1159455627, -0.0920108855, 0.0589867607, 0.0471695177, 0.0883370265, 0.0801797286, -0.0198094938, -0.0453880504, -0.0331996679, -0.0523989759, -0.0189081747, 0.0910627022, 0.0943977758, 0.0674976707, -0.0328345783, -0.0490319617, 0.0270853397, 0.0811557621, -0.0823102370, -0.0937889516, 0.0423404872, -0.0505487993, 0.0250283163, -0.1049724892, 0.0830694586, -0.1157220304, 0.0586211197, -0.0306972209, 0.0262168217, 0.0055570332, -0.0280066859, -0.0539773256, 0.0907936394, 0.0101292962, -0.0241877530, -0.0721077546, 0.0856285617, -0.0714384615, -0.1287219673, 0.0733682811, -0.0687132999, 0.0656560659, -0.0978868529, -0.0056597563, -0.0227352381, 0.0214750078, 0.1164087057, -0.1014704257, 0.0370023549, -0.0922388732, -0.0045987261, 0.0125416480, -0.0245109443, -0.0453964695, -0.0424897708, 0.0271581449, 0.0090978760, 0.0093755182, -0.1038213894, 0.0853567645, -0.0481767319, -0.1528781950, 0.0851793066, 0.0937553048, -0.0814241022, -0.1301869899, -0.1174946353, -0.1006008163, -0.1179493219, 0.0994497091, 0.0596671849, -0.1385248601, -0.0702394247, 0.0161838196, -0.1205317304, -0.0548953712, 0.0014527987, -0.0925828665, 0.0474658608, 0.1010663211, -0.0304924846, -0.1078841239, -0.1056093127, 0.0337778553, 0.1069435850, -0.0917754844, -0.0367018059, 0.0220679920, 0.0288577136, 0.1346251816, 0.0602613240, -0.0290091541, 0.0810394362, 0.1138755903, -0.0161748603, 0.1039759070, 0.0122251892, -0.0034887956, -0.0856244341, 0.0494803935, 0.0696131438, 0.0293023027, -0.1330234557, 0.0729220212, 0.1520207375, -0.0306357946, -0.1368414760, 0.0725887865, -0.0469033271, 0.1253682524, 0.1230143234, -0.0228126384, -0.0048605921, 0.0236476790, 0.0202355925, -0.1159448177, 0.0063411272, -0.0707303509, 0.0836193115, 0.0163536035, 0.0228585061, 0.0579326041, 0.0059214677, 0.0209796689, 0.1096525043, 0.0150750903, 0.0169159267, 0.1537053585, -0.0810929313, 0.0609131344, 0.0379832834, -0.0531938821, 0.0768102109, -0.0041709989, 0.0611416623, 0.1177057028, 0.0378750861, -0.0897639394, 0.0797133520, 0.1418800354, -0.0795364231, -0.1243982092, -0.0159264486, -0.1419639736, -0.0119692869, -0.1028169319, -0.0536553599, 0.0412326902, -0.0971790627, 0.1063806564, 0.0370549224, 0.0613141470, 0.0368880183, 0.0130215725, -0.1293415129, 0.1063381433, 0.0416650958, 0.1305953562, -0.0782959089, -0.0960260257, -0.0568652302, 0.1149462089, 0.0292903725, -0.1048121676, -0.0048113987, 0.1342322081, -0.0022321853, -0.0959537253, 0.1416635364, 0.0287188813, -0.0491413809, 0.0372890793, 0.0586771332, 0.0526907854, -0.1066422090, 0.1296150982, -0.0281343143, 0.1154510453, 0.0247571096, 0.0245582536, 0.0749376863, 0.1115498990, -0.0473670848, 0.0576501451, -0.0653335601, -0.0903539285, 0.0465753488, 0.0063768327, -0.0653004050, 0.0706645623, 0.0755899847, 0.0948854089, 0.0892142877, 0.1143708453, -0.0695628151, 0.1318228990, -0.1052773595, 0.0696754456, 0.0804436132, 0.0668172985, -0.1254546046, 0.0117878523, 0.0787777901, -0.0043162992, 0.0613696277, -0.0276184920, -0.0970977247, -0.0279263314, 0.0983424708, -0.0824553668, -0.1304994822, -0.0491952896, 0.1079411209, 0.0280900430, 0.1061679944, 0.0458771847, -0.0223199185, 0.0798248276, -0.0340149775, 0.0622465499, -0.1165226251, 0.0300852787, 0.0325191282, 0.0739859194, 0.0399107039, -0.0876674429, 0.0454493426, -0.0017779006, -0.0722648203, 0.0023524149, 0.0153441150, -0.0633092672, -0.0335718580, 0.0521721020, 0.0596381128, -0.0993303955, -0.0000868528, 0.1197363138, 0.0257612262, 0.0039598085, 0.0539123677, -0.0376490690, -0.1369247139, -0.0043925382, -0.0953516960, -0.1058606878, 0.0602396093, 0.0028614197, -0.1214033440, -0.0859562308, 0.0763521269, -0.1015506908, 0.1255035996, 0.0829128623, 0.0610600822, -0.1181762293, 0.1097675264, -0.0047262544, 0.0903356597, -0.0281808395, 0.1184586436, -0.0532463416, 0.0382016748, 0.0802185908, -0.1150531694, -0.0114894295, -0.0981439948, 0.0827767029, 0.1376618296, -0.0648982376, 0.0847681239, -0.1144428626, 0.0978649110, -0.0578809492, 0.1283688843, 0.1094257608, 0.1248746589, -0.1551714391, -0.0899093300, -0.0668288320, -0.0239177290, -0.0964830592, 0.0889847502, 0.0518142395, 0.0805272609, 0.0571284406, -0.0336870365, -0.0942821130, -0.0254677143, -0.1322133243, 0.0323417559, -0.0626112968, 0.0358893573, -0.1088361889, -0.0984656364, 0.0536502041, 0.0480596423, -0.1177575588, -0.0464911945, 0.0990391895, 0.0941429958, 0.0447828993, -0.0495053530, -0.0847789198, 0.1706585437, 0.0805321187, -0.0368289798, 0.0242100563, -0.0885077342, -0.0536972545, 0.0331191160, -0.1227484271, 0.1210567355, -0.0049470421, 0.0906821713, -0.0012936319, 0.0529724471, -0.0558112375, -0.0822537839, -0.0362690017, 0.0585111007, -0.0513009876, -0.0586927012, -0.0973593369, -0.1742749214, -0.0060191196, 0.1739854664, -0.0848125294, 0.2187479287, 0.0833896250, 0.1004579589, -0.0643420219, 0.0327453725, -0.0956640616, -0.0687278807, 0.0679779127, 0.0302781779, -0.0834503844, 0.1200763583, -0.0120796887, -0.1204598695, -0.1318745911, -0.0306531396, 0.0506390780, -0.0905664712, -0.0997107700, 0.1189341247, 0.0224949978, -0.1303912848, -0.0481087565, 0.0081259524, 0.0250705909, -0.0302278940, 0.0160077568, -0.0247780308, 0.1256600320, 0.0563970245, -0.0324888788, 0.0366076678, -0.0457810573, -0.1676026583, -0.1457357854, 0.0130555872, 0.0933307111, -0.0195755102, -0.0067920266, 0.0977734327, -0.0367469788, -0.1024094373, -0.0444380753, -0.0268271156, -0.0035252280, 0.0895159543, 0.0353703201, -0.1089164466, -0.0619177297, -0.0232608803, -0.1516974568, -0.0188187193, 0.0293426868, 0.0241755936, -0.0346790217, -0.0477172919, 0.0526260957, 0.0276977569, 0.0516617000, 0.0225294530, -0.0213586092, -0.0472394750, 0.1415008157, -0.0485963486, -0.0180518497, -0.1062033474, 0.1661407053, 0.0152833099, -0.1472962350, -0.1026249602, 0.0268498007, -0.0283487067, 0.1338272244, 0.0916969478, -0.0482450090, -0.0632005632, 0.0458627976, -0.0244915150, -0.0652237684, -0.1242341921, -0.0954634249, 0.1037183031, -0.0601988472, 0.0654788688, -0.0893894434, 0.0359173752, -0.1015164331, 0.1383461207, 0.1391335428, -0.0991072208, -0.1908602566, 0.1206888929, 0.1479938328, 0.0495878123, 0.0515340976, 0.0682920814, 0.0697220117, -0.0072744475, 0.0019583004, -0.0215354264, -0.1180563495, -0.0460036658, 0.0115589090, 0.1426244378, -0.0681811050, 0.2162670344, -0.0732399151, -0.0816798881, -0.1049988866, -0.0572883487, 0.0853019655, -0.0390310287, -0.0114084147, -0.0897844508, -0.0101384427, 0.0123233227, -0.0874211937, -0.0548127107, -0.0382300466, -0.0416232906, 0.1547409892, -0.1321900636, -0.1058902368, 0.0383745134, 0.0945994109, 0.0963676423, 0.0789797083, 0.0185660496, 0.0408515669, 0.0386154205, 0.0233056601, -0.0015285364, -0.0557682328, 0.0350254774, -0.0478335284, 0.0247381274, -0.0037403274, -0.0771644413, -0.0548237041, 0.0518396981, 0.0015418498, -0.0496224537, -0.0674223527, 0.1093627810, 0.1037155017, 0.1473688930, -0.0034083303, -0.1116196886, -0.0438207872, 0.0274560787, -0.0274713617, -0.0046596569, -0.1218417287, -0.0029166681, 0.0230888482, -0.1261082888, -0.0006898794, 0.0978747755, -0.0194031112, -0.0362736285, 0.0251428261, -0.0237997919, -0.0505434237, -0.0285615101, -0.0432171486, 0.0152467526, -0.0167872738, 0.0040018065, 0.0324996784, 0.0507108942, -0.0084107313, 0.0672072619, -0.1939446479, -0.0546294935, -0.0711709484, -0.1044084132, -0.0453492627, -0.0142780812, 0.0648166090, -0.0764332786, 0.0813920200, 0.1072988957, -0.0532375947, -0.1456772089, 0.0149160763, -0.0898728818, 0.0219038296, 0.0102293128, -0.1571315974, -0.0247079190, 0.0038385438, 0.1101778448, 0.0922499299, 0.0727484673, 0.1154410169, 0.1010838449, 0.0089601995, -0.1450959593, 0.1420924813, 0.0532826744, -0.0756175444, -0.1368020177, 0.0112107880, -0.0179357529, -0.0167784579, 0.0596362501, 0.0191127919, -0.1162950024, -0.0401727296, 0.1396202594, -0.1031962335, 0.0024252879, -0.0393971950, 0.0497726724, -0.1514044851, 0.1037876308, -0.0411822237, 0.0285982452, -0.0700408444, -0.0863961726, -0.0273793433, 0.0176701322, 0.0197027549, 0.0010794853, -0.0236865133, 0.1021831930, 0.1329687983, -0.0550793447, 0.0134511543, -0.0696851686, 0.0623357892, -0.1203427836, 0.0917924419, -0.1269618273, -0.1184398532, -0.0276072808, 0.1216341779, -0.0752281547, -0.1693946719, 0.1032243073, 0.0651571825, 0.0972190350, -0.0578311160, -0.0191791411, 0.1070388258, -0.1285101622, -0.0416020341, 0.1105499640, 0.0231991727, -0.0059209364, 0.0647642240, -0.0170013718, -0.0843711942, 0.0879230648, -0.0578382760, -0.0152021777, -0.0095813135, 0.0173621792, -0.0327519998, -0.0502846837, -0.0768308640, -0.0357075743, 0.1390406936, -0.0673375428, -0.1314349174, 0.0008741268, -0.0684993789, -0.0274934601, 0.0350143164, -0.0128220730, 0.1119069979, 0.0168161280, -0.1324902177, -0.0230916943, 0.1193115637, 0.0007515336, 0.0067886575, -0.0110453572, 0.0019929393, 0.0896327719, -0.1031476334, 0.0011774927, -0.0471949950, -0.0266814120, 0.1996748745, 0.0710738003, 0.0307348650, -0.0239739455, 0.0772037730, 0.1461762488, -0.0296416581, -0.0255427863, -0.0851676837, 0.0727308467, 0.1373405010, 0.1383709908, -0.0778171048, -0.0376486219, 0.0226569474, -0.0531957075, 0.0875836313, 0.0934415013, -0.0259339605, 0.0903106406, 0.1650095582, 0.1191080958, 0.1187582463, -0.0209712591, 0.0229774453, 0.1269773990, -0.0659713373, -0.0780389607, 0.1453695893, 0.0106680067, 0.1046826616, 0.1089157388, 0.0239220615, -0.0163789820, -0.1197098345, 0.0237639081, -0.0629423857, -0.0719131231, 0.0754081756, -0.0774553418, 0.1416929662, 0.1098309532, -0.1124290302, 0.1118046865, -0.1342302412, -0.0143555105, -0.0665470287, -0.0548243746, -0.1083215177, 0.0084083714, -0.0269081760, -0.1128584221, -0.0148089230, 0.0282781683, -0.0378082544, 0.1234800518, 0.0023162833, 0.0115622468, 0.1931512952, 0.0167057328, -0.1100937650, 0.0325963795, -0.0654081255, 0.1524657607, -0.0924581960, 0.0472164229, -0.0358897485, 0.1541771591, 0.1677069217, -0.0036165549, 0.0924621224, -0.0530677550, -0.0637370273, 0.0479761846, -0.0607918054, 0.0333875716, 0.0228009522, 0.0892535448, 0.0018967139, 0.0232877210, 0.1188999414, 0.0297205430, 0.0733885989, -0.1423213035, -0.1911557317, 0.2043588459, -0.0241398979, 0.1358156651, -0.0204738360, -0.0188757516, -0.0880027562, 0.0490450561, 0.0098812068, 0.0772408172, -0.0940293297, 0.1102231145, 0.0786377490, -0.0963570178, 0.1300792843, -0.0251249671, 0.0471345447, 0.0385654010, 0.1177235469, -0.0508747883, 0.0227203276, 0.1005861685, 0.1368972659, 0.0958445370, 0.1009246707, -0.0981401205, -0.1129585803, 0.0239390582, 0.0381641015, 0.0087585067, -0.1101195067, -0.0121798776, -0.0215777494, 0.0975475088, -0.0822783634, -0.0730530024, -0.0389658324, 0.1418115646, 0.0206814315, -0.0416076779, -0.1096149907, -0.0489383936, 0.0836281776, 0.1932178289, 0.0939195827, 0.1453340799, -0.1273884922, 0.0122472830, -0.0999568030, -0.1580234021, 0.0047969399, -0.0662968606, -0.0324113965, 0.1278050244, -0.0209659226, -0.0406561494, -0.0976383016, -0.1654281914, 0.0062732240, 0.1124814153, 0.1772256196, -0.0746048912, 0.0285782069, 0.0327601619, 0.0613500625, 0.0136777088, -0.0572329909, -0.1352363378, -0.0488743410, 0.1270037591, -0.0994671360, 0.1448368728, -0.0883781984, -0.0750806108, -0.1015475839, -0.0071341540, 0.1376250237, 0.0066027991, -0.0732448250, -0.0410044342, -0.0554661900, 0.0102513796, -0.0996787027, 0.1130278036, 0.0647771284, 0.0907915905, -0.0133738527, 0.2056628615, -0.0011410579, 0.1113159806, -0.0209619887, -0.0436328650, -0.0001468700, -0.0714280680, 0.1294059753, 0.1651124358, -0.1375677288, 0.1222925037, 0.0834026486, -0.0794393495, 0.0318807289, 0.1467865556, 0.0427284092, -0.0265047830, 0.1114119664, -0.0644641668, -0.0458127856, -0.0046172151, -0.0362443812, -0.1602715105, -0.0682851374, 0.0802162811, 0.1775576025, -0.0756421760, -0.1090543941, 0.0132327927, -0.0200318731, 0.0816186666, -0.0274522249, 0.1310613602, 0.0142351231, -0.0537487976, 0.1521539092, -0.1053244323, 0.1152140498, 0.1185998768, 0.0598970130, 0.1082429141, -0.0648459941, -0.1101769209, 0.1533723921, 0.0022023176, 0.0376343727, 0.0256963503, 0.0461258255, 0.0017146324, 0.1675590277, -0.0402451158, -0.0943220332, 0.0252200309, 0.0000721031, -0.1417406201, 0.1503146142, 0.1712666899, -0.0092203803, 0.1074391380, -0.0104173794, 0.0586245246, 0.0792143941, -0.0468907692, 0.1587081552, 0.0344893448, -0.0750104636, -0.1548635364, -0.0342478827, -0.0922236815, -0.0404755138, 0.0215620548, 0.0458824001, -0.0562805124, 0.0077017043, 0.1278514415, 0.0199287497, 0.0259698648, 0.1277291924, -0.0511790290, -0.0333138779, -0.0924914554, 0.1260602623, 0.0653385147, -0.0610907525, -0.0842289403, -0.0008884726, 0.1195630357, -0.0346989706, -0.0300844256, -0.0384752713, 0.0434012450, 0.0314298645, -0.1142847687, 0.1596573889, 0.0675847009, 0.0329906642, -0.0218165293, 0.1178872064, 0.1122017354, 0.0865047649, -0.0048949504, -0.0180543344, 0.1509332508, 0.0240520146, -0.0833944678, -0.0373803377, 0.0089767287, -0.1228704453, 0.1072305590, 0.0051131453, -0.1099673212, 0.0836969316, -0.1494046897, 0.0284226444, 0.0582776628, 0.0053747175, 0.0995179638, -0.1017295122, 0.0583603159, 0.1446405202, 0.0066298628, 0.0473880991, -0.0317662694, -0.1273076683, 0.0167437829, -0.1064839885, -0.0173544195, 0.0492594987, 0.1800767183, -0.0895287320, -0.0355158262, 0.0152817545, -0.0628090128, 0.0497351103, -0.0273577645, -0.0492994301, 0.1610703766, 0.0899379998, 0.1017396450, -0.0820237994, -0.1116416231, 0.1317515373, 0.1075734571, -0.1258200854, 0.1100962013, -0.0654646978, -0.1178724021, 0.0383191667, -0.1013750359, 0.1263661534, 0.0542951003, 0.1184893176, 0.1161606386, -0.0408432148, -0.0992008895, 0.0062282928, -0.1495836079, -0.0144291529, -0.0255051069, -0.1378740966, -0.0907050893, -0.0119223017, 0.1744195074, -0.0711442232, 0.1340492964, -0.0819206983, 0.0613389015, -0.0483048409, 0.0715282336, 0.0380146913, -0.0469723493, -0.0983771905, -0.0278624874, -0.0496595986, 0.0227795746, -0.1408003122, 0.0596351065, 0.1530743986, 0.0420222618, 0.1149557680, -0.0359648168, 0.1079518199, -0.0174664184, -0.0703425407, 0.1032641828, -0.0391192995, -0.0558648854, 0.0791240260, -0.0972574055, -0.0849356875, -0.0779125243, 0.0355064534, 0.0185027793, -0.0221969355, 0.0651719272, -0.0318016522, -0.1236465573, 0.1358389705, 0.1451583654, -0.0526733473, 0.0340780169, 0.1016987711, -0.0179116931, 0.0381557085, -0.0636321455, -0.0747770369, 0.0382286645, -0.1018218994, -0.0234163385, 0.1131961644, 0.0433780551, -0.0537464358, -0.0454602540, 0.0539824367, 0.0136356736, -0.1068097949, -0.0243628733, -0.1965894699, -0.1184617281, -0.0594494827, 0.0025968214, -0.0028500983, 0.1413703561, -0.0027853716, 0.0099680247, 0.0920545310, 0.1965424269, -0.0873410702, -0.1240504235, -0.0872140154, -0.0639788136, 0.0855149403, -0.0513220280, -0.1338480860, -0.0714547336, -0.0784106031, 0.1530016661, -0.0326898918, -0.1104183719, 0.0493927971, 0.0799815208, 0.1562157869, -0.0276333224, -0.0066633355, 0.1627373248, -0.0095752766, 0.0470220521, -0.0572037585, -0.0578845069, 0.0020089238, -0.1205295473, 0.0285553485, 0.1477133483, -0.1676566005, -0.0255428758, -0.1783799380, -0.0266734194, 0.1050147265, -0.2207930237, 0.0942142233, 0.0483182594, -0.1691871136, 0.0107176788, 0.0760393664, -0.1125781834, 0.1368581504, -0.1402709335, -0.1111535728, 0.0433587730, 0.0804129392, -0.0452378802, -0.0365532227, 0.0618968196, 0.0060370676, -0.1233220249, 0.0815966651, 0.1096353829, 0.0194789972, 0.0281637423, 0.1109861434, -0.2322195768, -0.0375560932, -0.0237471368, 0.1352113634, -0.0284848120, -0.0830984414, -0.0328861549, 0.1080654189, -0.1460021585, 0.0766838118, -0.0085198069, -0.0584494360, 0.0207938012, -0.0432204455, 0.0554509647, -0.1762029678, 0.0352338068, 0.0025905676, 0.0460084379, -0.0476000123, -0.0615910664, 0.0559886098, -0.1127438247, 0.0753828883, -0.0973491743, -0.1641417593, -0.0424694419, 0.0260404330, -0.0782498792, 0.1016934067, -0.1878154874, -0.0207906049, -0.0965798050, -0.0714555681, -0.2356664240, -0.0673085600, -0.0903009027, 0.0420645922, 0.0010114082, 0.0491327420, -0.0305120740, 0.1165585369, -0.0251125507, 0.0860255733, 0.0355522037, -0.0470961668, 0.0725608468, -0.1021066308, -0.0876287669, -0.1109198332, -0.0820842236, -0.1060396060, 0.0205183383, -0.0978976935, -0.0338213332, 0.0648158044, 0.1965398192, 0.1309549809, -0.0710759535, -0.0365969948, 0.1920965463, -0.0066296258, -0.0585030168, -0.0897381753, -0.0256122444, -0.0231022369, 0.1045175269, -0.0504616983, -0.0316708051, -0.0671547130, -0.1223037690, 0.0748160928, -0.1245214269, -0.0190878622, 0.0614340492, -0.0824143812, 0.1445702910, 0.0902946442, -0.0746869296, 0.0594311059, -0.0442121252, -0.0505391061, -0.0674234554, 0.0563314632, 0.0214692969, -0.1076220423, 0.1246993840, 0.1681645662, -0.0648886412, -0.0140711712, -0.1048206687, -0.0215581805, 0.1348908544, 0.1141005605, -0.1148325801, -0.0437333994, -0.2222827971, -0.0306628365, -0.0263780300, -0.0479212627, 0.0644791201, 0.1147098392, 0.0484303422, -0.0669528991, 0.1790862083, 0.0796277970, 0.0943509266, 0.1322381049, -0.1148022935, 0.0457478315, -0.0092147915, -0.0259753224, -0.0614415519, -0.0908316448, 0.0578734204, -0.0107247652, 0.1746879369, 0.0474607274, -0.0686455891, -0.2133933157, -0.0789130852, 0.1066085175, 0.1131729707, 0.0798905790, 0.0437282175, 0.1418723464, 0.0072667575, -0.0247218423, 0.1159552708, 0.1028525829, 0.1372192055, 0.0379449986, 0.1074411795, -0.0230245311, -0.0657591745, 0.0171243828, 0.0915136188, 0.0677314997, -0.0515685827, 0.0534436516, -0.0890983492, 0.0790342987, 0.1120897904, 0.0909285173, -0.0770971179, 0.1247674823, -0.1002774239, -0.0341470391, 0.0943462029, 0.0820933878, 0.1133764535, -0.1071665585, -0.0351925828, -0.0968777537, 0.0950414464, 0.0945776626, -0.0380634815, -0.0408603176, 0.1155550629, 0.0649085715, 0.0498268455, -0.0743152574, 0.0808871612, 0.0300014336, 0.1090837121, -0.1036645919, -0.0966561735, 0.0982083157, -0.0685370862, -0.0513203405, 0.0093768006, 0.0265732855, -0.0573211275, 0.0049422868, 0.0604475997, 0.0986941010, 0.1427675635, 0.1105331182, 0.1741100997, -0.0051407190, -0.0601655319, -0.0459541306, 0.0022263227, 0.0448777489, 0.0796659216, -0.0024235868, -0.0085234027, -0.0539628752, -0.0459288917, -0.0009265664, 0.0639933720, 0.1108320057, 0.0395696536, -0.1426859498, -0.1532665491, 0.0641291663, 0.1202438399, 0.1135496050, -0.0484260023, -0.0355283469, -0.0578275360, 0.1286743879, -0.1021078005, -0.0503495894, 0.1039341241, 0.0606425516, 0.0360041000, 0.1031387001, 0.0824142545, 0.0770167634, 0.0540760718, -0.0692312419, 0.0476413369, -0.0361141711, -0.0967706218, 0.0502346419, -0.0420363732, -0.0041210451, -0.0405501500, -0.0029793498, 0.0630775467, 0.0370481685, -0.0842562541, -0.1525963098, -0.1397546530, 0.0851780325, 0.0549466722, 0.0774992704, -0.0038855739, -0.1063294634, 0.0897487924, -0.2440099418, 0.0075479764, -0.0847584754, 0.1532530338, -0.0337704979, 0.0933498144, 0.1252022833, 0.0076902728, -0.1100749969, -0.0030482407, 0.1789820790, 0.1787132025, -0.0283351373, -0.0406416953, -0.0258684196, 0.0974926651, -0.0344143212, -0.0507360846, -0.0875134096, 0.0841162354, 0.1209383905, -0.0291152541, 0.1010626480, 0.0808258504, 0.0724343210, 0.0866250694, 0.2303336561, -0.1071369424, 0.0650103614, 0.0812844038, -0.0177295338, 0.0772593841, 0.0626248568, -0.0853854716, 0.1153128445, -0.1026287824, 0.0384889282, -0.0067589954, -0.0690327734, 0.0493864976, 0.0200810991, 0.0029184588, 0.0234189369, 0.1269568354, 0.0859063864, -0.1070832387, 0.0176722575, 0.0438032523, -0.0659827739, -0.0106859608, -0.0198831651, 0.1308161020, -0.0436268002, 0.0296283588, -0.0149439247, 0.0003914670, -0.0588436536, 0.0893519595, 0.0878462046, -0.1142321303, 0.1123612672, -0.0101743368, 0.1802295595, 0.1422649324, 0.1541181207, 0.1157390997, 0.0481937788, -0.1138945818, -0.0368442684, -0.0438009091, 0.1249533743, 0.0281169731, -0.0597491525, 0.0146806762, -0.0521202050, -0.1333197951, 0.1790671647, 0.0970208645, 0.0555998124, 0.0140385749, -0.0165826697, 0.0797469541, -0.0079337591, -0.0814317167, -0.1204220727, 0.0582927465, -0.0633305162, 0.0166569818, 0.0428775400, 0.0105903512, -0.0051544216, -0.0193878934, 0.0239065830, 0.0226573832, -0.1030140221, 0.0885040537, 0.0129268449, 0.1279889792, 0.0775502101, 0.0760476664, 0.1569258422, -0.1052894443, 0.0047983467, 0.1104425117, 0.0252132434, 0.1670044661, -0.0730408430, 0.0051489114, -0.0004251668, -0.0210265871, -0.0207749736, -0.1130991951, 0.0872751325, 0.0591701306, 0.0020644292, 0.0680785179, 0.0329259671, 0.0244905092, 0.0134664187, 0.0568103008, 0.0378610119, 0.0159782972, 0.0970439911, -0.1531993449, 0.0568311177, -0.1029578000, 0.0690114498, 0.1326560378, -0.1119579002, -0.0481664427, -0.0341957621, -0.0954489484, -0.0256124418, 0.0577524230, -0.0428406708, -0.1831255257, -0.0428345762, -0.0504444130, 0.0790090784, -0.1125137582, 0.1706859618, 0.0551363491, 0.1075430438, 0.1226523817, 0.0904522017, 0.0916447714, 0.0227196068, 0.0288000759, -0.0798254311, 0.0202939697, -0.1117312759, -0.0404523127, 0.0353610963, 0.1366918832, 0.0864795521, 0.0280206334, 0.0623603165, 0.0927061439, 0.0294226371, -0.0707135275, 0.0975874513, 0.0202561915, 0.1121769920, 0.0015657691, 0.1009136140, 0.1281020194, 0.0282766055, -0.1172870547, -0.0645283014, 0.0541542061, -0.0903569534, 0.1405161470, -0.0034692278, 0.0590707846, -0.0205605626, -0.2564737201, -0.1245161220, -0.0049401922, 0.1354916990, -0.0080527505, 0.0307094436, 0.1564366370, 0.0454024635, -0.0784711614, -0.0387158990, -0.1063895598, -0.0844825357, -0.0270390995, -0.0671935454, 0.0039648078, -0.0045082644, -0.0659271553, -0.0659732595, 0.0686578080, 0.0982414037, -0.0044763568, 0.0293099657, 0.0467442758, -0.0683764592, 0.0234819390, -0.0969133899, 0.0314101093, -0.1076506972, -0.0934105963, -0.1162422374, -0.1058164462, 0.0466984063, -0.0995949730, 0.0763375834, -0.0623550937, -0.0314403512, -0.0424156561, 0.1681916714, 0.0803261623, 0.0784050673, -0.0023411307, 0.0845110565, -0.0234826542, 0.0271996967, 0.0252549239, -0.1619725823, -0.0328955539, 0.0239152573, -0.1235241517, 0.1284756064, 0.0176441539, 0.0171054266, 0.0222412162, -0.0173473023, 0.0270074550, -0.0092361821, -0.0393235497, 0.0165500380, 0.0225817859, 0.0218310636, 0.0786033347, -0.0060916580, -0.0250143744, 0.1061612815, 0.1018140987, 0.0505158380, 0.0803260356, 0.0769321322, 0.1790340096, 0.2098834813, -0.0841903761, 0.1276041716, -0.0248297546, -0.0687367171, -0.0528636426, -0.0715566278, -0.0387680270, -0.0446382873, 0.0340641476, -0.0432415083, -0.0843813345, -0.0574374050, -0.0030780749, -0.0991239324, 0.0089076487, -0.0601919219, -0.0190709177, -0.1082504019, 0.0870392695, -0.0330194607, 0.1383407116, -0.0945902392, -0.0226544142, -0.0992883444, -0.1647121161, -0.0530880801, -0.1045171395, -0.1355603486, 0.0767163932, -0.0063592643, -0.0142001733, -0.1350379437, -0.0235102009, 0.0505809598, 0.0141786570, -0.0094555067, 0.1174979135, 0.0254598372, 0.1040895432, 0.0572351813, 0.0873617083, 0.1069208011, -0.0178868696, 0.0963547230, 0.0731846765, -0.0458315723, 0.1257322729, -0.0436112359, 0.0778945610, 0.0954478607, -0.1366710365, -0.0812838897, -0.1404759437, -0.0416361950, 0.0273652468, -0.0873207003, 0.0026730343, 0.0341065526, -0.0907035396, 0.0356038064, 0.1001469791, 0.0724136829, 0.1042968184, 0.0799808577, 0.0976846069, -0.1023022532, 0.0334292911, -0.0239814706, 0.1219414398, 0.0064752833, 0.1134108007, 0.0917211324, 0.0260473713, 0.0710559562, 0.0243947562, 0.0013863825, -0.1012054682, 0.0645249858, 0.1045801491, 0.1280142218, -0.0857247487, -0.0752239302, -0.0052998960, -0.0315074474, -0.0756237581, -0.1258826405, -0.1439494044, -0.0295883305, 0.1195853725, -0.1255146414, -0.0714330226, -0.0589176007, -0.0192983747, -0.0602527857, -0.0958043337, -0.0689299628, -0.0281492975, -0.1390127391, 0.0984387770, 0.0489818528, -0.1589163095, 0.0635150522, 0.1184588000, -0.0002027758, 0.0579859167, -0.1417869031, 0.1197061762, 0.0820765644, -0.1141719818, -0.1209506318, -0.0518510975, -0.1180962771, -0.1062634215, 0.0816269442, -0.0814470947, -0.0215504467, -0.0669885576, -0.0327773206, 0.0438303873, -0.0794842988, -0.1532771289, -0.0083696917, 0.0509039611, 0.0332061611, -0.0663022324, 0.1243359521, 0.0071237804, 0.0737047344, 0.0376168787, 0.0367512293, 0.0411776714, -0.0227982756, -0.0828010738, 0.0347263329, 0.1067987159, -0.0171254370, 0.0057470128, 0.0903268829, -0.0886312276, -0.0720642284, 0.2210069001, 0.0191305168, -0.0010650317, 0.0578047894, 0.0337596461, -0.1082686335, 0.0895844623, -0.0962353945, 0.0922519118, 0.0344847478, 0.0206216630, -0.0829574019, 0.0828687921, 0.1368841976, -0.0792410672, 0.1744845062, 0.0463974886, -0.0331259556, -0.0703008100, 0.1106186807, 0.1146114171, 0.0557700321, 0.1188941970, -0.1180345938, -0.0465256423, 0.0637658238, -0.0001506234, 0.2768039703, 0.1066541597, 0.1634467840, 0.0503716618, -0.1329975277, 0.1072145402, -0.1421492100, 0.1354015619, 0.0731798932, 0.0241835229, 0.0439609550, -0.0747661591, 0.0886074677, 0.0364402309, -0.0257164109, 0.1204410940, -0.0868331194, -0.0321489200, -0.1172949001, 0.0994899794, -0.0847861394, -0.0917300209, 0.0462669171, -0.0977421552, 0.0585717671, 0.1324403882, -0.0005317240, -0.1480891109, 0.0392273255, -0.0538380742, -0.0149035593, -0.1475892365, 0.0458182059, 0.0740562677, -0.0328159295, -0.0840723664, 0.0112618161, 0.0373767614, -0.1204740107, -0.0557427183, 0.0287748780, 0.1036848649, -0.0174579863, 0.0686267465, 0.0760716870, 0.0713558346, 0.1273300350, 0.0833816305, 0.1417317986, -0.0870614126, -0.1933360100, 0.0301596895, -0.0218290035, -0.1341419965, 0.0813884437, -0.1295419335, -0.0627481490, 0.0854410231, -0.1352129877, -0.1127855778, -0.0819218159, -0.1228963584, -0.1613621414, -0.0552723557, -0.1019264981, -0.0155448895, -0.0968072191, -0.0871962383, 0.1909816116, -0.0105679063, -0.0406823717, -0.1498910934, -0.0555996485, -0.0917833522, 0.1040731817, -0.0616270602, -0.1031437218, -0.0867458433, 0.1258844435, 0.0335561447, 0.0465837717, -0.1239284799, -0.0797298849, 0.1315849870, 0.1524726450, -0.0139027499, -0.1288142502, 0.0511722490, 0.0125285583, 0.1178428233, -0.0388774946, 0.0264203418, 0.1894543916, 0.1107917428, 0.1204160973, -0.0138836866, 0.0901190713, -0.0550621524, -0.1124943271, -0.0144417938, -0.0397048369, 0.1570390165, -0.1348541975, 0.0261288881, 0.0124492245, -0.0204140078, 0.0347405784, 0.0537200719, -0.1131077930, 0.0025873582, -0.0346518382, -0.1478809416, -0.0346165225, -0.1343469024, -0.0949209034, -0.0124770477, 0.0591572598, -0.1471888274, 0.0596062690, 0.0425160564, 0.0033163994, 0.0750412494, -0.1104024425, -0.0184717625, 0.1344856769, 0.0389986373, 0.2423818409, -0.0520002991, -0.1860376447, -0.1029331312, -0.1089912727, 0.0546876416, 0.0516350083, -0.0747850984, -0.0859005004, -0.0286209807, -0.0552081466, -0.0757005885, -0.0378226228, -0.0168727282, 0.0470961742, 0.1568049490, 0.1123911068, -0.0001779872, -0.0599030331, -0.0028531828, 0.1093399674, 0.0860754028, 0.0922381431, -0.1054326072, 0.1288519055, -0.0162247736, -0.0680634603, -0.0703987181, -0.0961511731, 0.2211782783, 0.0521277077, -0.0939451009, -0.0428131223, -0.0050037098, 0.0360448286, -0.0617557839, 0.0400248319, 0.0844551921, 0.0762637481, -0.0822764114, 0.0476575717, 0.0798840895, -0.0935478806, -0.0669044480, -0.0281978082, -0.0695941076, 0.1183973327, 0.0128159095, 0.0851486698, -0.0730611533, -0.0356142707, -0.0048666415, 0.0709240437, -0.0457014479, -0.1109315380, -0.1135149300, -0.0044060582, 0.0538865104, 0.1034233049, 0.0388544127, 0.0616716072, -0.1235170811, 0.1571414024, 0.0790510699, 0.0072422088, -0.0757137239, -0.0242493469, 0.1727006286, -0.0874729604, -0.0030015553, 0.0230415314, 0.0074207108, -0.0720456913, 0.0144968601, -0.0309886690, -0.1059954911, -0.0027987489, -0.0552842952, 0.0156686679, 0.0076302160, -0.0011323983, 0.0910198614, 0.0032122703, -0.1113175526, 0.1385932863, 0.1284729987, 0.0836937353, -0.1004440263, 0.1512655616, -0.0271942504, -0.0977525562, -0.0539609455, 0.0564687923, -0.0194587223, 0.0846145824, -0.1097963825, 0.1059644148, -0.0197180845, 0.0891993269, 0.1187753826, -0.0915712938, -0.1141839921, 0.0977450088, -0.0809265822, -0.0873625800, -0.1223111302, 0.1663608402, -0.1005737782, -0.0857765675, 0.1459149718, 0.1534094214, -0.0772542208, 0.0382266417, 0.0697254837, -0.1445651501, -0.0051808371, -0.0074072462, -0.0579283088, -0.1259233952, 0.0157308541, 0.0447992496, 0.0049397852, -0.0297631919, 0.0392922163, 0.1108593196, -0.1171561927, 0.0702298135, -0.0752144903, 0.1460124403, 0.0686999708, 0.0045243851, -0.0969308764, 0.0442585126, -0.1439928114, 0.1360329837, -0.0539489537, 0.0463282689, 0.0430074558, -0.0719814748, -0.0800030529, -0.0935847163, -0.0269100089, -0.0964998305, 0.0064306888, 0.0613584220, -0.0437917449, 0.0174700916, -0.0657782704, -0.0545326211, -0.0071320576, -0.0350985415, -0.0194926076, -0.0299033783, 0.1477451324, 0.0173891783, -0.0813228935, 0.0904137790, 0.0263830181, -0.0777812153, -0.0774324909, 0.0591715202, -0.0873530135, -0.0302497391, -0.0643409640, 0.0688322783, -0.0257384758, -0.0765804052, -0.0860840604, 0.0904975161, 0.0753326416, 0.0137502588, 0.1467600465, -0.1066207364, -0.0813312680, 0.0359181985, -0.0913005844, 0.1066241711, 0.0781023726, 0.0206456427, -0.0042492840, -0.0281069241, -0.1368242949, -0.0297712963, -0.0528205261, 0.1143845618, 0.1431623548, 0.0350183286, -0.1566505432, -0.0733430013, 0.0779641345, 0.0908720121, 0.0756445676, 0.2059376389, 0.1255210638, -0.0408449657, -0.0094121434, 0.0329959691, 0.0955014154, -0.0669020638, 0.0615677424, 0.0445153154, -0.1264769435, 0.1283373684, 0.1321036965, 0.0865457207, 0.1531814784, -0.0893893987, -0.0089151859, 0.1600576639, 0.0542861708, -0.1177500784, 0.1416763961, -0.0537067018, -0.1097836494, 0.0300517417, 0.0091077574, 0.0323067382, -0.1675743908, 0.1004629284, 0.0036799153, -0.0147910584, 0.0206174422, -0.0591812097, 0.0800532997, -0.1073744297, -0.0393331423, -0.1732032746, 0.0890491381, -0.0519644059, -0.0554774031, 0.1233014092, 0.0530603305, 0.0408034101, -0.0780838132, 0.0718927979, 0.1024983451, -0.0942052230, -0.1315171272, 0.1688985378, 0.0554683916, -0.0108793145, 0.0339268744, 0.1461578757, 0.1665259302, -0.0517508239, 0.0279574543, -0.0394594893, 0.0581788309, -0.0742165446, -0.0913377479, 0.1375396848, -0.0612684712, -0.0475932173, 0.0489892289, 0.0551131666, 0.0307207257, 0.1224195585, -0.0107483333, -0.0118986228, -0.0647516027, 0.0325330906, -0.0853907019, 0.0596647635, -0.0174114835, 0.0345858969, 0.0846686512, -0.1076191068, 0.1170403436, -0.1194834262, 0.1399387717, -0.0750426203, 0.1367684752, 0.0747783929, -0.1248204038, -0.2062067538, -0.0313233547, 0.0246129744, -0.1133459285, 0.1333973557, -0.0212320648, -0.0167740006, 0.0713634491, -0.0007208280, -0.0582173951, 0.0264205914, 0.1124913692, 0.0276616439, 0.0367682315, 0.0619489066, 0.0420717001, -0.1024213508, -0.0721231923, 0.0753202215, 0.0756281018, 0.1161992252, -0.0443694405, 0.0273974016, 0.0959250405, -0.0047553387, 0.0248908848, -0.0483384803, 0.0572818629, 0.0028748680, -0.1082617939, 0.1081260666, -0.0602751337, 0.0225659516, 0.0632459968, -0.0033600510, -0.0260551646, 0.0319288075, -0.0169007387, -0.0475512743, -0.1573277414, -0.0978265703, -0.0640312508, 0.0699149519, 0.0428515822, -0.0162524730, -0.0114244707, -0.0277908426, -0.0807680562, -0.0034454933, -0.1303113997, -0.0432009436, -0.0053229225, 0.0253189057, -0.0150496932, -0.0960880890, -0.0157921314, 0.0198171269, -0.1317167878, 0.1459162980, 0.0158118065, 0.0439723656, 0.0479191393, -0.0632122979, 0.0566858947, -0.0809930339, 0.1169398353, 0.0809012130, -0.1300298423, -0.0700496435, -0.0238510445, 0.0370862372, -0.0898790136, -0.0502470024, -0.0975480974, -0.0959259495, -0.0596495010, 0.0690197274, 0.0431173556, -0.1034283638, 0.1630207449, -0.0337821469, 0.0260459688, 0.0005056642, 0.0826230422, 0.0232678130, -0.1759552956, 0.0083717918, -0.0655126646, 0.0836075172, -0.0904125273, 0.1247757077, -0.0360401608, -0.1066737026, 0.0795843974, 0.0328840427, -0.0388574637, -0.0295823440, -0.0109285014, -0.1597485989, -0.0243416484, 0.0898829028, -0.0651971251, -0.0442649350, 0.0051809144, 0.1435539126, 0.0222173519, -0.0906069577, 0.1375368088, 0.0982197002, 0.0809430107, -0.1279012114, 0.0919959918, 0.0937564373, 0.1644668132, 0.0657734498, -0.0574056655, -0.0542366430, -0.0684944242, 0.0691260174, -0.0400013141, -0.0358282961, -0.0710980594, -0.1524925828, 0.0756017938, -0.0679403991, 0.0151443975, -0.1313013136, -0.1248930842, -0.1269678473, 0.0539509691, -0.1204450950, 0.2166597694, 0.1324176937, -0.0921631083, 0.0848709270, 0.0735424981, -0.0443755388, -0.0684129372, -0.0676525086, 0.0964977220, 0.1267184466, 0.0904727578, 0.1180842370, -0.1088372692, 0.0492915660, -0.0861099437, 0.1293658763, 0.0709484518, 0.1150679216, -0.0820502639, -0.0669526309, -0.1078100652, 0.0830084831, 0.0257649329, -0.0944273993, -0.0913058668, -0.0038924157, -0.1013110802, -0.1023903191, -0.0782860070, -0.0047452715, -0.0690209419, 0.0504440181, 0.0367786400, -0.0619892403, -0.1268780679, -0.0695721433, 0.0988558009, 0.1255826205, -0.0071386630, 0.0276750717, 0.1473395675, 0.0045129177, 0.0936155021, -0.1396758556, -0.0419969968, 0.0281461477, -0.0978420153, 0.0961710960, 0.0166366305, -0.1787213683, -0.0006727554, -0.0516474098, -0.0376050919, -0.0595512688, 0.0204900820, 0.0000702549, -0.0284986813, 0.0899311826, 0.0324885361, 0.0142009864, -0.0675154179, -0.1068316624, -0.0663260594, 0.1048885435, -0.0314402990, -0.0912461802, 0.1160568893, -0.0089881048, 0.1032461226, -0.0677724704, 0.0370161422, -0.0332513452, 0.1183353513, 0.0550615266, -0.0871365368, -0.1218266711, 0.0751202032, -0.0727195516, -0.0913713351, -0.0901659876, 0.0510530621, -0.0313128084, -0.0034529446, 0.0759582818, -0.0865990371, 0.0030721771, -0.0742088780, 0.1335729063, -0.0744088441, -0.1281494498, 0.1084029526, -0.0485571437, -0.1208399832, -0.1069211140, -0.0807295218, 0.0629722923, -0.0633974522, -0.0343186110, 0.0041193664, 0.1112629622, 0.1222573817, -0.1717171669, 0.0372994468, -0.0007723580, -0.2336481959, -0.1075717583, -0.0404620990, -0.0470173806, 0.0695915893, -0.0092990771, -0.0070102382, 0.1135732383, -0.0595246255, 0.0595459193, 0.1112000421, -0.0178737491, -0.0560283102, 0.0343880616, 0.0191539116, 0.1260398179, -0.0056818291, 0.0403641351, -0.0435828865, -0.0653875321, 0.1129547805, 0.1262825131, 0.0159580093, 0.0170903690, -0.1255993694, 0.1129682288, 0.1225635186, 0.1457682401, -0.1406507343, 0.0068658064, 0.1487296373, -0.0404210128, -0.0709891617, -0.0691469312, -0.1601847857, 0.0475616865, 0.0119075179, 0.0626926720, 0.0194759127, -0.0914419070, 0.1344468594, -0.1642209888, -0.0770620853, 0.0727669671, 0.0638045520, 0.0638573840, 0.1018628627, 0.0139484974, -0.0034647749, -0.0532516353, 0.0141469333, 0.0938390791, -0.1272971928, 0.0476325862, -0.1303639412, 0.0925153717, -0.2194831967, 0.1222926453, 0.0386638530, 0.0644468069, 0.0319784433, -0.0838216990, 0.0355071574, -0.0106886644, 0.0924565643, 0.0265645143, -0.0304992907, -0.0346537717, 0.1973834187, 0.0873556510, -0.0484805740, -0.0876558423, 0.1290963739, -0.1009380519, -0.1107528731, -0.0318674929, 0.1075138301, -0.0497430936, -0.1342006475, -0.0395983532, 0.0824932158, 0.1641015708, -0.0989071205, -0.0291404277, -0.1633101404, 0.0414557904, -0.0317295268, 0.0270383675, 0.0656166822, -0.0298501290, -0.0022298989, 0.0556360818, 0.0239758044, -0.0658013523, 0.0893914476, -0.1204558313, 0.0822864473, -0.1076901406, 0.0189142283, -0.0861456469, 0.0342295133, -0.0862782151, 0.0020170768, 0.1641654372, -0.0594144911, 0.0840260163, 0.0213528778, 0.0259981900, 0.1384714395, -0.0097417990, 0.0174341910, -0.0444632657, -0.1439048350, -0.0108371899, 0.0287456177, -0.0817985684, -0.0672020614, -0.0757588744, -0.1530821472, 0.0742573589, -0.0357209444, -0.0717209727, -0.1222360656, 0.0584221520, -0.0292069782, -0.2010700256, 0.0629273430, -0.0116284527, -0.0123176333, -0.1275651157, 0.0748490915, -0.0112351542, 0.2144228667, 0.0017466876, 0.0958798900, -0.1743544489, 0.0476647578, -0.0087377662, 0.0189902429, -0.1390223801, 0.0347352512, -0.0523009412, -0.0471148305, -0.0808820352, 0.0386561938, -0.0475414619, -0.0517595038, 0.0624000132, 0.1151727512, -0.0223514866, 0.0884250477, -0.0211299583, -0.1184635386, -0.2115352005, -0.0560616516, -0.0620203651, 0.0220934264, 0.0948162004, 0.0710357875, -0.1114328206, 0.0390579887, 0.1529412419, -0.0055155936, 0.0141066043, -0.0698967576, -0.1280890703, 0.0058575869, 0.0549953766, -0.0088487873, 0.0986710265, -0.0388070941, -0.0637856275, -0.0263260622, 0.0314394906, 0.0400965959, 0.0064158128, -0.0650649816, -0.1711742878, 0.0796121955, 0.0324962772, -0.0645660609, -0.1073869690, 0.0930884629, 0.0438728444, -0.1763648093, -0.1120843664, -0.1380835623, 0.0892255679, -0.0231091455, 0.1278214455, 0.0907989368, 0.0237637572, 0.1201770157, -0.1824828088, -0.0946765393, 0.0916508064, -0.1048618928, -0.0302970801, -0.0825928971, 0.0637629926, -0.1367020309, 0.0630075410, 0.0692909881, 0.0328622013, -0.1321580261, 0.0555998348, 0.0040706098, 0.1533933729, -0.0077212094, -0.1315601319, 0.1117794886, 0.0614588745, 0.1247743443, 0.0001559995, -0.1468102783, 0.0946924463, 0.0012548403, 0.0772714391, 0.0488474071, -0.0858310610, 0.0797281414, 0.0132401176, 0.0282532610, 0.1419274956, -0.0275159292, 0.0665367097, 0.0167203918, 0.1156062931, -0.0376767032, -0.0871279463, -0.0005783159, 0.0205338374, 0.0195290465, -0.0845914707, 0.1149760187, -0.0620029978, 0.1171855181, 0.1207944825, 0.0395774990, 0.0628670827, 0.1730495095, 0.0944373608, -0.0798181817, -0.0066789091, -0.1084086075, -0.0592282377, -0.0651237741, -0.0422881544, 0.1103195250, 0.0951521322, -0.0818606466, 0.0638112947, -0.0899206027, 0.1108056158, 0.0889832005, 0.0332914516, -0.1067704186, 0.0738890618, -0.0253047664, 0.1008847579, 0.1027527377, -0.1137245968, -0.0512493961, -0.1288935691, 0.0448276587, -0.1118329838, 0.0513146780, 0.0483619571, -0.0830051824, 0.1745226979, 0.1029775068, 0.0642548427, 0.0410274602, -0.0431218036, -0.0912955478, 0.0941085815, -0.0912508368, -0.1236109585, -0.0076405299, -0.0408597775, 0.0113203218, -0.0843042731, 0.0813951269, 0.1128924638, -0.0657975599, 0.0715388656, 0.0051657730, -0.0913804919, -0.0509237275, 0.0573506281, 0.1266806871, 0.0812245235, 0.1759405881, -0.1292782128, 0.0616919063, -0.1378543824, 0.0817925707, 0.1252860427, -0.0034978427, -0.1674782485, 0.0253089387, 0.0590263009, -0.1318733692, -0.0277279951, 0.0417309850, 0.0608058088, 0.0551986173, -0.0585138239, -0.0710077882, -0.0576909781, -0.1470285207, 0.0527887382, 0.1162424684, 0.1205642596, -0.0932118893, -0.0016602942, 0.0841000676, -0.0662024245, -0.1384911388, -0.0372646302, 0.0634940416, -0.0626080036, -0.0868901163, -0.0931979641, -0.0226503164, -0.0075203977, -0.0182397328, 0.0542832650, 0.0415781066, 0.0887317136, 0.0677947551, -0.0233424958, -0.1301914304, 0.0124800885, 0.0116536869, -0.1825761199, 0.0597417504, -0.0059207291, 0.0328407325, 0.0256109312, -0.0114160106, 0.1234267354, 0.2343516946, -0.1633983701, -0.1031568497, -0.0948552266, -0.0536683314, 0.0270945393, -0.1538520306, -0.0873168111, 0.0432397649, -0.0055421786, 0.0381245352, 0.0417647474, -0.1008455157, 0.1273383796, -0.0580264516, -0.0526253656, 0.0360362604, 0.0358900428, 0.0497746728, -0.1525769532, 0.0136400107, 0.0116347531, -0.0797888786, -0.0018441398, 0.0114558926, 0.0787803978, 0.0558581762, -0.0539571084, 0.1810201555, -0.0947477072, -0.1283270866, -0.0369448885, 0.0645622313, 0.0998862833, -0.1105495021, 0.0873058960, 0.0071101147, -0.0375797711, -0.0759381875, 0.1480014920, -0.0572964661, -0.1358079314, 0.0547660738, -0.0401083417, -0.0997697338, -0.0505708978, -0.1176116914, 0.0640669763, 0.0217409749, 0.0260757580, 0.0085290978, -0.1611870229, 0.1123400033, -0.0639161617, -0.0301879309, 0.0313627422, 0.1597694606, 0.0080393413, 0.0062390463, -0.1524795592, 0.0363865308, -0.0066556586, 0.0427723378, -0.0831778049, -0.1991338432, -0.0531830713, -0.1349923164, -0.0002329531, -0.0031177844, 0.0148078287, -0.0101880264, 0.0870040134, -0.1149573699, 0.0087933149, -0.1059580073, 0.0310337953, 0.0321063474, 0.0080259237, 0.0521725342, -0.1225092709, 0.0034441911, 0.0612659231, -0.1286144555, 0.0839004815, -0.0109039638, -0.1241961345, 0.0827535912, 0.0056318464, -0.0514625870, 0.1727352589, 0.0679067373, 0.0334444754, 0.0310753584, -0.0882362425, 0.0598009937, -0.0702060163, 0.0320591815, -0.1042650715, 0.0381612182, -0.1511100531, -0.0662192181, 0.0348643735, -0.0951251760, -0.0101444609, 0.0556218661, 0.0352861881, -0.0655853525, -0.0425344296, -0.0508592762, 0.0430959165, -0.0646059811, 0.0302498695, 0.0716682225, 0.0286266785, 0.0161152575, -0.0739659443, -0.1582367420, -0.0417847298, -0.0345097147, 0.0006998928, 0.0371078700, -0.1908291876, -0.0373815931, -0.0062509426, 0.0351457447, -0.1029650643, -0.0891217068, 0.0878058746, 0.0696296543, 0.0985701233, -0.0819927827, -0.0755476356, -0.1003037095, 0.0913859829, -0.0754526705, 0.0551332831, 0.1347471327, 0.0051881243, 0.1063037440, 0.0850655064, 0.0981744528, 0.1044615954, 0.0079468461, 0.0510545075, -0.1842674613, 0.1531503052, -0.0489056595, -0.0024730910, -0.0144044925, -0.0867010802, 0.0694522262, -0.0200429913, -0.0494316146, 0.0887790993, 0.0320144817, 0.0045671505, -0.1144846529, 0.1168823391, -0.1548810601, 0.0822807923, -0.0158277806, 0.1416371018, -0.0075815502, -0.0643655658, -0.0404554978, -0.1783287674, -0.1481240541, -0.0847700462, 0.0080898190, -0.0490840264, 0.0227665044, 0.0991727859, -0.0506516583, -0.0598772801, -0.1159514710, 0.0150845693, -0.0702644140, 0.1085083261, -0.0380896479, -0.0903613493, -0.0351998843, 0.0252493899, 0.0742788687, -0.0619327575, -0.0936656818, 0.0392600708, 0.0616452210, -0.0949959308, 0.0552309006, 0.0410929918, 0.0750962272, 0.0641523898, -0.0997508839, -0.0824932456, 0.0287400410, 0.0444978662, 0.0659954846, 0.0327263474, -0.0385490432, -0.1329318285, -0.0894058198, -0.1176371500, -0.2184511870, -0.1155799627, -0.1623934060, -0.0213107336, 0.1106397882, -0.0794703588, -0.1085845456, 0.0389514528, -0.0702695772, -0.0141781028, -0.0935706049, -0.0682988539, 0.0770526975, 0.0505156592, 0.0093685137, -0.0339513496, -0.0820763111, -0.0963877514, -0.1109733880, -0.0970525965, -0.0540888831, -0.0219693854, -0.0744784474, -0.0234243274, -0.0194545649, -0.1016301513, 0.0290664043, 0.0921432972, 0.0738889202, -0.0012346553, -0.0876485184, -0.0771302283, 0.0479383431, -0.1196032315, -0.0565595850, -0.0538530238, -0.0597904697, 0.1383381337, -0.0382650569, 0.1070754230, -0.1076135784, -0.0512583777, 0.0083181774, 0.0114300475, -0.0183240119, 0.0117666814, 0.0980706662, 0.0815624744, -0.1419443637, -0.0128762983, 0.0166723132, -0.0522019155, 0.0991315469, 0.0100962939, -0.0887668431, 0.0121944901, 0.0511673279, 0.0653443336, -0.1194507480, 0.0137599148, -0.1129185781, 0.0674735084, -0.0619487539, 0.0670750141, -0.0894957036, 0.0133430948, -0.0979797095, 0.0304216314, 0.0664028674, 0.0934609696, 0.0862478912, -0.0720183179, 0.0440428630, 0.0254792310, -0.0248297453, 0.1239519119, 0.0129873166, -0.1395140141, -0.0880051255, -0.0962572619, -0.0814021304, 0.0058586481, -0.0680211484, -0.0989010707, -0.0654030666, -0.0161521826, -0.0281952843, 0.1004653424, -0.1105847210, -0.1154163331, -0.1125184372, 0.0458031073, -0.0812277272, 0.0716922581, 0.0215127170, 0.1010267809, -0.0658661053, -0.1388666928, -0.0706924945, -0.1243525073, 0.0062574265, 0.1183280349, -0.0335516110, -0.0811238661, -0.0064085969, -0.0115447678, 0.0338130593, -0.1053590551, -0.1056956127, -0.0195463542, -0.0777006447, 0.1210983694, -0.1413551718, -0.1604585201, 0.1159633473, 0.1066953987, -0.1132710055, 0.0619655102, -0.0364138223, -0.1144885048, 0.0284196101, -0.0867394134, 0.0557877757, 0.0835511014, 0.0551465899, 0.0050000488, -0.0370545574, -0.0701847672, -0.0795467421, -0.0512517653, 0.1298266351, 0.1033540517, 0.0162079278, -0.0010450837, 0.1023203284, -0.1106561273, 0.0565744229, 0.0460151620, 0.1070859730, -0.0872439519, 0.0742397979, 0.0555814467, -0.0963990092, 0.0399466380, -0.0289091934, -0.0264651887, 0.0621305108, -0.0846349522, -0.0127364192, -0.0056301029, -0.0165284276, -0.1291763783, -0.0020574888, 0.0298272409, 0.0563407764, -0.0214081164, 0.0684944317, -0.0571686141, 0.1294332147, -0.0108205033, 0.0484524220, 0.1338571012, -0.0098826615, -0.1253542602, -0.1304434389, -0.1137824580, -0.1133437157, -0.0526449084, 0.0569717102, -0.1252227128, -0.0228454005, -0.0540326536, -0.0369596556, -0.0897435397, 0.0621606149, -0.0695248023, 0.0408980101, -0.0624374896, -0.0199245792, -0.1238548011, -0.1000838727, -0.0410868265, -0.1035578772, -0.0528313108, 0.0033483133, 0.0347267166, -0.0227592532, -0.0166184157, 0.0148762325, -0.1172104180, -0.0878761932, -0.0010650295, -0.0503092185, -0.0221446045, 0.0605824590, -0.1300993562, -0.0873191357, -0.1127183661, -0.0345824212, 0.0677449331, 0.0734753385, -0.0158952195, -0.1144227833, -0.0441160649, 0.0477486588, 0.0241748244, 0.0246950779, -0.1188615263, 0.0374678075, 0.0832740739, -0.0772048384, -0.0949057937, -0.0590243302, -0.0355599225, -0.0225524288, -0.1199430227, -0.0796684176, -0.0316839367, -0.1156096160, -0.0437859744, -0.0043037049, 0.0237018485, 0.0129940482, 0.0495987236, -0.1133684665, -0.1109215021, -0.0065685147, -0.1090198830, 0.0558074117, 0.0650757179, -0.0079023112, -0.0401212163, 0.0583145916, -0.0212605558, -0.0576696992, 0.0199912116, -0.0363896117, -0.0145390360, 0.0393992364, -0.0343043208, 0.0457905456, 0.1330971122, -0.1065967754, 0.1276749969, -0.0127084004, -0.0244155936, -0.1135816127, -0.0507291406, 0.0343727805, -0.0144498767, 0.0237018447, -0.0907597244, -0.0299955420, -0.0446868502, -0.0651138350, -0.0723760352, -0.0165011808, -0.0456209518, 0.0246737078, -0.0282079931, 0.0068602320, -0.0759966522, 0.1128401309, -0.0275845882, 0.0054499502, -0.0433701612, 0.0688564777, -0.0724323541, -0.0263500549, -0.0136696585, 0.0656851903, -0.0568891652, -0.0734637082, -0.0045139994, -0.1121085808, -0.1045771465, 0.1275466681, -0.1432445645, -0.0262221321, 0.0857621059, 0.0447841622, 0.0784962848, -0.1363514662, 0.0448292047, -0.0628302023, 0.0250902586, 0.0996052846, 0.0794214159, -0.0584968552, -0.1123867035, 0.0564700440, -0.1110678911, -0.0963526815, -0.0946549848, -0.0166099705, 0.0217502676, -0.0491293333, -0.0705170184, -0.0870783329, 0.0415033959, 0.1031776741, 0.1841593981, 0.1298559606, -0.0177465379, 0.1133890450, -0.1337590516, -0.0607242286, 0.0258990116, -0.0881836936, -0.0039537982, -0.0663378388, 0.1011555344, -0.1163379550, 0.0026802942, 0.1311619580, -0.0054772617, 0.0102858432, -0.0545043014, -0.0756275430, 0.0654581338, -0.0154982740, 0.1067575887, 0.0988570452, 0.0447982401, 0.0467374623, 0.0931685120, 0.1017360240, -0.0248340219, -0.0807000771, 0.0106911818, -0.1683283746, 0.0928102583, 0.1017233059, 0.0641601458, 0.1173146665, -0.1402873695, -0.0036593496, -0.0939864963, -0.1480020285, -0.0306431763, 0.1390244663, -0.0130596505, -0.0905616507, 0.1355494410, 0.0005192244, 0.0574795827, 0.0033687283, 0.1342644393, 0.0429518856, -0.0263764188, 0.1001388058, 0.1248347685, -0.0016411666, 0.1170737892, 0.0540116243, -0.1314157397, -0.1155224368, -0.2308441103, -0.0594983436, -0.0101562226, 0.0993334353, 0.0211613663, 0.0318516046, 0.0961666703, 0.0828593820, 0.0117692128, -0.0042021601, 0.0899271443, 0.0373695977, -0.1218854263, 0.1201319695, -0.2342208922, 0.0290686321, -0.0371666439, 0.0413953885, 0.1356471628, 0.0122803422, -0.0321824476, -0.0961291641, 0.1172526255, 0.0407496132, 0.0945859030, -0.0729074627, 0.0628704280, -0.0018431912, -0.1131055579, 0.0271470584, -0.0601146780, 0.0337975360, 0.1031091660, 0.0100261271, -0.0027814573, 0.0613274686, -0.0283434540, -0.0371507965, 0.1717565358, 0.0937795490, 0.0543966554, 0.0377916284, 0.1358317733, 0.1145397797, 0.0309174005, 0.0638114735, 0.0437676162, 0.1289988756, 0.0057934201, -0.0820513070, 0.1229482740, 0.1135562062, 0.0652054697, 0.0082271723, 0.0199327022, 0.1443074644, 0.1157730743, -0.0398223735, 0.0693113431, 0.0547556430, -0.0949801281, -0.0358158164, -0.0591790266, 0.1035167724, -0.0026716797, -0.0009265182, -0.1344413161, 0.0007302281, -0.0694417357, 0.1087340266, -0.0514912941, 0.0551432669, 0.0360075310, 0.0695389360, -0.1145338491, 0.0102112982, 0.0130563099, 0.0654469877, -0.1708593071, 0.0260215197, -0.1170103028, -0.0633229911, 0.0637454391, -0.0630766451, 0.0079073692, 0.0241042357, 0.1057280302, 0.0976321548, -0.0251039807, 0.0636201575, 0.0437276475, 0.0211294312, -0.0939170495, 0.0424550101, -0.0597894117, 0.0409807451, -0.0538178943, -0.0114106508, 0.1321429908, 0.1010765880, 0.0955707356, 0.0133925797, 0.0711598322, -0.1966973543, -0.0736751035, 0.0864049867, 0.1003706828, 0.0549575500, 0.0532014780, -0.0062148548, 0.1346172690, -0.0875274315, 0.0279917214, -0.1303721517, 0.0474437997, -0.1263966411, -0.0150484433, 0.1073574796, 0.0307619069, 0.0531796403, -0.1032223776, -0.0675637573, -0.1144052967, -0.0853747129, 0.0288274437, 0.1253512949, -0.1016112491, -0.0910594761, 0.0382478312, 0.1431473047, 0.0998745263, 0.0798269510, 0.1732689291, -0.1179295033, -0.0850890651, 0.0106308945, -0.0691504404, -0.0914062783, 0.1319409311, 0.0069704773, -0.1291942298, -0.1171912625, -0.0468329489, -0.0752536505, 0.0883088782, -0.0347572491, 0.0809822232, 0.0692524239, 0.0013563189, -0.0689947084, -0.1223005280, 0.1242917106, -0.0239516236, -0.0327895768, -0.1476826519, -0.1067826748, -0.0883285850, -0.0325292833, 0.0520144403, -0.0737710446, -0.0770288333, -0.0898129493, 0.1568203419, 0.0886810496, 0.0972793773, -0.0009686261, -0.0564250872, 0.0482140072, -0.1635874808, 0.1467112005, 0.0481710359, -0.1116449758, -0.0840491056, 0.0424227789, 0.0105113331, -0.0650303140, -0.0994974747, -0.1241197214, 0.0405607373, -0.1270864904, -0.0054075415, 0.1582632512, -0.0540882349, -0.0848798230, -0.0061768410, -0.0352199040, 0.0872380286, 0.0610427558, 0.1201116070, 0.0115601933, 0.0550131612, 0.0769347996, -0.0488698892, 0.0863860250, -0.1556079835, 0.0724826753, -0.1165374592, -0.0769886747, 0.0279484950, 0.0566396788, 0.0242667180, 0.0179671571, -0.0363270193, -0.1300459653, 0.0802705139, 0.0056574135, -0.1235476956, -0.0043928563, -0.0880879462, -0.2785521746, -0.0427819826, -0.0910822377, 0.1554079950, 0.0693832785, 0.0226386432, 0.1007244140, -0.0698739067, -0.0337324664, 0.0164742637, -0.1655597836, 0.0334900729, 0.0103180688, -0.0182808936, -0.0942121670, -0.0919236764, 0.1173117235, 0.0961639211, 0.0503166467, -0.1185016930, 0.0967871994, 0.1803869307, 0.0346829668, 0.0044731963, -0.0450141616, 0.0305001214, 0.0014788286, 0.0661994666, -0.1329429448, 0.1022863686, 0.0706002414, -0.0652734190, -0.0774573684, -0.0823796242, 0.1125825271, -0.0622863472, -0.0760879368, -0.0760620758, -0.0922505930, 0.0054820827, 0.0883954093, 0.1083394140, 0.0544298030, 0.0241830628, -0.0044328710, -0.0344193876, 0.1337952912, -0.1722542495, -0.0402821489, -0.1141513884, -0.0789323375, -0.0246120617, 0.0014290066, 0.0678752512, -0.0391274057, 0.1239778772, 0.0881446674, -0.0106810685, 0.0746854544, -0.0015425388, -0.0962380469, -0.1575097293, 0.1343043298, -0.0792366117, -0.0559025593, -0.0456106178, -0.0633403212, 0.0001379785, -0.1645319760, -0.2157281935, -0.0929597691, -0.0368032604, -0.0649735406, -0.0540058352, 0.1384698749, 0.0612289235, -0.1111043543, 0.0877868980, 0.1321896166, 0.0719532669, 0.0908106640, -0.0422322042, -0.1334317178, 0.0276824348, 0.1417907029, 0.0066200588, 0.1391738653, -0.0590587072, 0.0643003881, -0.1001776010, -0.0342011675, 0.0399472080, -0.0280051716, 0.0023084318, 0.0065606278, -0.0799135268, -0.0354908630, -0.0891736075, -0.0811135024, -0.0435729511, 0.1235682443, -0.0114557855, -0.0450439565, 0.1135183424, 0.0512094162, 0.1276869178, 0.0522414856, -0.1612251103, 0.0104968976, 0.0153722139, -0.1387879550, -0.0948433802, 0.0579703636, 0.0038967698, -0.1134356260, -0.0682601407, 0.1219989285, -0.1130617335, 0.0329217203, -0.0779815689, -0.1045383215, -0.0073477677, 0.1328724176, -0.0650635064, 0.1203802079, 0.0883063450, 0.0430756100, -0.0587955788, -0.0745630413, 0.0482723527, -0.0844407231, -0.0760447532, -0.0744053945, 0.0564269088, 0.0680282265, -0.0127171660, 0.0744003206, -0.0858604014, 0.0871417969, -0.1862168759, -0.0107287485, -0.0260174051, 0.0760378912, 0.1563142538, -0.0656718537, 0.0697119087, 0.0824105516, -0.1358174235, 0.1305278093, -0.1270275265, 0.1004736573, 0.0452528484, 0.0184512194, 0.1192909330, 0.0312560052, 0.0864023045, -0.0212779585, -0.0995337516, 0.0715172812, -0.0433725081, -0.0416593365, -0.0216957312, -0.0273616426, 0.1130492538, 0.0863085240, 0.0684711561, 0.0060090949, -0.0429076701, 0.0791903585, 0.1140597314, 0.1046310291, -0.0495809428, 0.1201360375, -0.0847085342, -0.0478000417, -0.1040523127, 0.0848033577, -0.0805162713, 0.0081737461, 0.0459647700, -0.0168405399, 0.0167389363, 0.0427533686, 0.1542962492, 0.1133230031, -0.0364335366, -0.0931878164, 0.1372837275, -0.0775834695, -0.0039672903, -0.1143493056, 0.1240888089, 0.0105633195, 0.1248013303, 0.1083043367, -0.0052688122, -0.0829506367, -0.0572622195, 0.0965328515, -0.1185990572, 0.0978753567, 0.1490837932, 0.1241342947, -0.1274216920, 0.0948570296, 0.0880147368, -0.1366067827, 0.1056452990, -0.1076191440, 0.0072594099, -0.0768136978, -0.0401558951, -0.0517537817, -0.1055472940, 0.0175553020, 0.1131717265, 0.0409451798, -0.0421140455, 0.0607413910, 0.0088419644, 0.1019941419, -0.0709510148, 0.0352448002, -0.1039351746, 0.0212795325, -0.0821389779, -0.0247473866, -0.1091591641, 0.2028027624, -0.0580385439, 0.0310569778, -0.0751112103, 0.0259204376, -0.2460388243, 0.1518672407, 0.0313757025, 0.0030151298, -0.0221233517, 0.0436005481, -0.1327909380, 0.1311949790, 0.0052416171, 0.0086946934, 0.1068590656, 0.0141533315, 0.0204788558, -0.0162376966, -0.1884460747, 0.0837884992, 0.0011767447, -0.1272049248, -0.1126667634, 0.0450255312, -0.1120388657, 0.0119947344, -0.0057503385, -0.0829224437, -0.0157455131, 0.1325401366, 0.0229903013, 0.0073071402, -0.0599927157, 0.1477780938, 0.0440264381, 0.0635540336, -0.0523517169, 0.0961500630, -0.0318092741, -0.0731721818, 0.0425021872, 0.0789383724, -0.0452283099, 0.0087335398, 0.0024116854, 0.1402335912, -0.1143366322, 0.0180444401, -0.0619068481, 0.0193675719, 0.0453048982, -0.0878506899, -0.0910811871, -0.0678806230, -0.0609652027, -0.1434518546, -0.0314227529, 0.0400671549, 0.0262866896, -0.0429664627, -0.0211372320, 0.1097724438, -0.1744832844, 0.1278618276, -0.0378374532, 0.0112334481, -0.0490524322, -0.0301405881, -0.0206220932, -0.1491743028, -0.1270652115, -0.0084223468, 0.0713343397, -0.0091682496, -0.1001540944, -0.0064947745, -0.1681653559, 0.0162800066, 0.1311125010, 0.0711040795, 0.0898018032, -0.1638935953, -0.0809151009, -0.0860213786, -0.0970829353, 0.0766469389, 0.0407512039, 0.1100176424, 0.1518029720, -0.0764375925, 0.0157437362, -0.0397675559, 0.0952341780, -0.1149529293, -0.0055684298, 0.0367896780, -0.1098342165, 0.0497203022, -0.0574468412, 0.0671461448, -0.0164967105, 0.0954488292, -0.0132044768, -0.0184037983, -0.0271672718, -0.0835526511, 0.0058240434, -0.1349316090, 0.0967021957, -0.1049926877, -0.0935616791, 0.0525723137, -0.0775642097, -0.0086751981, 0.0198197812, 0.0712602288, 0.0745992288, 0.0707599670, -0.1251023859, 0.0172625836, -0.1129780933, -0.1642561704, -0.0179376490, 0.1438234895, -0.0010035477, -0.2640134692, -0.0214083325, -0.1277015060, -0.0796706229, -0.0890248865, 0.0287680477, -0.0126453573, 0.1466618329, 0.0218112171, 0.1348928064, -0.0153955128, 0.1580089331, 0.0588600822, 0.0107161729, 0.0665618256, -0.0739285946, -0.0937251821, -0.0333243906, -0.0413019359, -0.0942344218, 0.0357347503, -0.0244562216, 0.0565860905, 0.0234206263, 0.0447362512, 0.0492518395, 0.1097944304, -0.0318047926, 0.1295987517, 0.1380130053, -0.0958239585, -0.0452041849, 0.0803795531, -0.1474168003, 0.1497007459, -0.0871947110, 0.1229011789, -0.1303728372, 0.0771833807, 0.0105214203, -0.0844551623, 0.0683616325, 0.0874932259, -0.1013401300, 0.0652536526, -0.0009124957, -0.0948568583, -0.1280705631, 0.1071499661, 0.0083162440, 0.1419452727, 0.1247612089, 0.2424435318, 0.0285425913, 0.0428694710, -0.0520182662, 0.0990829617, 0.0217095800, -0.0564477257, -0.1326718479, -0.0318043754, 0.0360203199, -0.0503650606, -0.0391601659, -0.0451545417, 0.0852821320, -0.0188824181, -0.0278255735, 0.1050896049, -0.1050215438, -0.1290879995, -0.0104997251, 0.0477813445, -0.0517778732, 0.1345262825, 0.1109366715, 0.1249153167, -0.0300305411, -0.0790177584, 0.0923555568, -0.0094821202, 0.0163663328, -0.0403350741, -0.0723979995, -0.0419243723, -0.0666982681, 0.0384980328, 0.1002555862, -0.0839774758, 0.1102506593, 0.1016313583, 0.0020659864, 0.0501678251, -0.0996934474, 0.1003266051, 0.0436069556, 0.0193425324, 0.0771673620, -0.1170674115, 0.0244331751, -0.0602013059, -0.0389350690, 0.0057621729, 0.1150198430, -0.0981395021, 0.0437708907, 0.1804837883, 0.0216060579, -0.0066975551, 0.0769160315, 0.0275714230, -0.1010794267, 0.0194453951, -0.1002556086, -0.0579216257, -0.0333575644, 0.0154763153, 0.0350953862, 0.0247339532, -0.0089792684, 0.0204620585, -0.0525772497, 0.0295583885, 0.0119550694, -0.0005019253, 0.1237171888, -0.0287142359, 0.1240993440, -0.0030633295, -0.1087620780, -0.1679392457, 0.0152230021, -0.0780546367, 0.1031871960, -0.0440970063, 0.2418676168, 0.0437341668, 0.1418061554, 0.0904872939, 0.0875947252, 0.0496245511, 0.0088079507, 0.1131491438, -0.1093120351, 0.0360396430, 0.0266285408, -0.0388905592, -0.0488280505, -0.0397333726, 0.0492902249, -0.0891274214, 0.1332684457, 0.0315678418, -0.0596764237, 0.0272038598, -0.0775465295, 0.0636413246, 0.1468103975, 0.1240700409, 0.0504681170, -0.0773840472, 0.0823164433, 0.0419173576, -0.0056639439, -0.1230387166, -0.0107208770, 0.1211282834, -0.0004725334, 0.0041409754, 0.1239721850, -0.0141148232, -0.0744084865, -0.0132934060, -0.0451480560, 0.0402729250, 0.0236224085, 0.0944318026, 0.0739059895, 0.0741391405, -0.1275251359, 0.0627284497, -0.0551300943, 0.0754899979, -0.1077519804, 0.0925308466, -0.0378155410, 0.0689729601, 0.0098975319, 0.1149456650, 0.0680818483, 0.2413316816, -0.0570848584, 0.0615535453, 0.1734031737, 0.1098701209, -0.1096782684, -0.0833325088, -0.0280435141, -0.0025588102, 0.0272423159, 0.0218677931, 0.1483440399, -0.0267054085, -0.1351289451, -0.1498420238, -0.1335638911, 0.1004581824, -0.0167625155, -0.0903404504, 0.0961577743, 0.0323896669, 0.1323296130, -0.1693066210, 0.0584375337, 0.0907909870, 0.1615219414, -0.0436505787, -0.0391149707, -0.0754750744, -0.2596812248, -0.0175892115, 0.0506269857, -0.0362351425, -0.0262204316, 0.1686272323, 0.0751944780, -0.0061699860, 0.0470542051, 0.1332670599, 0.0995525494, 0.0624317825, -0.0712883323, 0.0774129406, -0.1187894121, 0.0050309678, -0.1283248067, 0.0567940436, -0.0487968512, 0.1773960739, -0.0797618777, 0.1111506596, 0.0117771085, 0.0934649855, 0.1323394179, -0.0952567756, -0.0391036868, 0.0360272378, 0.0356524289, 0.0450862981, -0.0448378362, -0.1059716865, -0.1550802588, -0.1469617784, -0.1194605976, 0.0831860751, -0.0310286563, 0.0503673926, 0.0822793022, 0.2023440152, -0.0443304665, -0.0330932289, 0.1420711875, 0.1635403931, -0.1880925745, 0.0064918338, -0.0870842114, 0.0423715562, 0.0092599168, -0.0091943322, 0.1155639663, 0.1290616989, -0.0889746770, 0.0005815592, -0.1194993928, 0.0831608549, -0.1333490610, 0.0715285540, -0.1490364820, -0.0550165623, 0.0896902829, -0.1020176932, 0.0314452909, -0.0597313009, -0.0407076739, 0.0420407988, 0.0819583684, 0.1054722890, 0.0702895895, -0.1263829023, -0.0671587437, -0.0304283928, -0.0873962715, -0.0284806769, 0.1085290313, -0.1026753113, -0.0155731607, -0.0943526328, 0.1611061990, -0.0596140362, -0.0887558162, -0.0304599609, 0.1100793704, -0.1335077733, 0.1030693799, 0.1081391200, 0.0712503642, -0.1003527045, -0.1258363426, -0.0342068002, 0.0817427188, -0.0402677096, -0.0671997592, 0.0284866337, 0.1161075383, -0.0638871565, -0.2643477023, 0.0188491270, -0.1045180112, 0.1083912104, 0.0658982173, -0.0638378263, -0.1445507407, 0.0263662580, 0.0588433444, -0.0842186287, -0.0828024745, 0.0402240641, -0.0616735891, -0.0404224433, -0.0306916367, 0.0629972741, -0.1415676177, 0.0282826461, 0.1125229001, -0.0677542612, -0.0695926473, 0.0991195366, -0.0648099706, -0.1432280689, -0.1268438697, 0.0641103089, -0.0255605057, -0.0294181183, -0.0701314360, 0.0398335569, 0.1309727430, 0.0085545909, 0.0575333200, -0.1133840531, 0.1282525510, 0.0014077967, -0.0303499401, 0.1170258075, 0.1018404514, 0.0023014115, -0.0601030886, 0.1542463750, -0.0594784804, -0.0271064378, 0.0741730258, -0.1388680637, 0.0965494514, -0.1663768142, 0.1196251512, 0.0937828869, 0.0366366841, 0.1222014055, 0.0264239702, -0.0612294450, -0.0178944450, -0.0253043193, 0.0469516031, 0.0570235923, 0.0859629661, 0.0667832196, -0.1216858253, -0.0290795229, -0.1193121821, 0.0387363099, 0.1461385041, 0.0833982229, 0.0448966473, 0.1164072827, 0.0790756196, 0.0099707404, -0.1126062497, -0.2257695496, 0.0737070665, 0.0526150651, 0.0135007510, -0.0562882386, 0.1369284540, -0.1009794474, -0.0749289319, -0.1117444485, -0.0684582964, 0.0233129188, -0.0325721465, -0.0650876388, 0.0955278724, -0.0009432200, 0.0447009243, 0.1686156988, 0.1054563671, 0.0453172289, 0.1386099011, 0.0210905597, 0.0913525894, 0.1601061821, 0.0901601911, -0.0349522308, -0.0765803903, 0.0974559933, 0.1058708951, 0.0735153630, -0.1203329191, -0.0012273316, 0.0629545003, 0.0512552410, -0.0247365236, -0.0059607774, -0.0782752633, 0.1133286208, 0.1130885705, -0.0139630772, 0.0298981555, 0.0479634218, -0.1083530784, -0.0162411891, 0.0645173490, 0.0952584371, 0.1491278112, 0.0419029929, -0.0333581716, 0.0708679184, -0.1196534932, -0.0016167734, 0.0598199591, -0.0166329220, -0.1431300789, -0.0060296617, 0.0982820690, 0.0809693635, -0.0979874358, 0.0480715521, -0.0587590709, 0.0798341632, -0.0421821922, 0.0815794021, -0.0333529860, 0.0210038200, 0.0910540670, 0.0033258868, -0.1303164512, 0.0866113454, -0.0363963097, -0.1167089045, 0.0155766867, 0.0534972660, 0.1370344609, -0.0641357750, 0.0007940965, -0.1105643734, -0.1181724370, -0.0933333412, -0.1283130944, -0.0754746944, 0.0943083018, 0.0287349448, -0.0886731893, 0.1317735165, 0.0618779063, -0.0430352613, 0.1394105703, -0.0638831407, -0.0640993491, -0.0461088270, -0.0723131970, 0.0575083494, -0.0666292012, 0.0483190380, -0.0437530018, 0.1250642836, -0.0401929952, -0.0150891235, 0.0224154666, 0.0623026825, -0.0569567010, -0.0785807818, 0.1069397554, 0.0163011905, -0.1087687612, -0.1058096737, 0.0918013901, -0.1001964658, -0.0241771489, -0.0346979834, 0.1012196690, -0.1221843734, 0.0015754629, 0.0031364860, 0.0975529179, 0.0371421874, 0.0535435490, 0.1045840681, 0.0173674356, -0.0411512181, -0.0059913187, -0.0185465645, 0.0320529938, -0.0289210081, 0.0314403437, -0.1084596142, 0.0717008337, -0.1110996306, 0.1247706041, 0.0555958115, 0.0910521448, -0.0092978040, -0.1655691564, -0.0283788648, 0.0790154412, 0.1317119747, 0.0135708721, -0.2310213596, 0.0442171283, -0.1122778505, 0.0417530760, 0.1166634932, 0.1197320297, -0.0158209279, 0.0426541306, -0.0154845826, -0.0445348695, 0.1166978553, -0.0280035492, -0.0197426490, -0.1442252398, -0.0844769329, -0.0237769112, 0.0301298983, 0.0341982991, -0.0617644601, -0.0537651777, -0.0993258283, 0.0512337200, 0.0042530946, -0.1423394233, -0.0243173204, 0.1418199986, -0.0074920002, 0.0190917216, 0.0587864928, 0.1088135391, 0.1367578804, 0.0279560722, -0.0960838348, 0.0403478630, -0.0772101432, -0.1549592912, 0.0187430382, 0.0380462408, 0.1513233930, -0.0556913875, -0.0513733365, 0.1161650270, 0.0070718164, 0.0691030025, 0.0298066400, 0.0953307971, -0.0309717767, 0.0955764651, -0.1449208260, 0.1063038334, -0.0706695616, 0.1426998824, -0.0052967938, -0.0752043277, -0.0413421057, -0.0557383224, 0.0435688384, 0.1576509029, 0.1129694358, 0.0536506660, 0.1020838544, -0.0697729439, 0.1028193235, 0.0129672773, -0.0216813497, -0.0001715423, 0.0889095515, 0.0197369829, -0.0250959732, 0.0943587199, 0.0491085276, -0.0259626545, 0.0522998609, 0.0818786770, -0.0320887230, 0.0731234998, -0.0970319062, 0.0684977546, 0.0739675313, 0.0892836452, -0.0127548873, 0.1152067110, 0.1125199571, -0.0047014155, 0.0972873494, -0.0721823201, -0.0411836654, -0.0546947978, 0.0119831106, -0.0393933170, -0.1343714893, -0.0244366229, -0.2257819176, 0.0120294383, 0.0893775001, -0.0683697835, 0.0888431296, -0.0757388398, -0.0093377903, -0.1537872702, -0.0446073785, -0.0036724154, 0.0794911757, -0.0223225821, 0.0955795199, 0.0071226088, 0.0619822666, -0.0342609286, 0.0770203322, 0.0706370547, -0.0925788283, -0.0636738762, -0.0774812847, -0.0568491369, -0.0580889992, 0.0955717489, 0.0941936821, -0.0589467213, 0.0854790956, -0.1013044864, -0.0731298551, 0.0111296149, 0.0373533964, -0.1014763862, -0.1045694426, 0.0047475682, -0.1534587592, 0.1357353479, 0.0803757161, 0.1255872995, -0.0704009682, 0.1324601769, 0.0368188508, -0.0307364222, -0.0031746100, 0.1039231196, 0.0050222734, 0.0739256665, 0.0381230935, 0.0570907257, -0.0979898497, 0.0389717929, -0.0521023050, -0.0678852275, -0.1054847166, 0.1272539198, 0.0741015226, 0.0889023617, 0.1322804689, -0.0310932975, -0.1597684175, -0.0892923549, -0.0989674181, -0.0378641114, 0.0972897485, -0.0938907117, 0.1183409691, 0.0750517473, -0.0140926819, -0.0803352073, -0.0006448897, -0.0396358296, 0.0206215251, -0.1092193499, 0.0188380200, -0.1490201950, 0.1026105061, 0.1909025013, 0.0184066780, 0.1410373896, -0.0439943373, 0.1009825766, -0.0379847325, -0.0232893936, -0.0048200842, 0.0170257688, -0.1353063881, -0.0699040666, -0.2189645767, -0.0105979405, 0.1131339520, 0.0537830368, 0.0795511082, 0.0128940018, 0.0463527516, 0.0202617794, -0.0452536270, -0.0826360956, 0.0554024130, -0.0339578465, -0.0467556305, -0.0301113781, 0.1705862135, 0.0156270768, -0.0010557214, -0.0815417767, 0.0129689425, 0.0064840270, -0.0756776556, 0.1038769484, 0.2121103704, -0.0857433006, -0.0908149853, 0.0666166395, 0.0906228125, 0.0287951231, -0.1323831975, -0.0734332204, -0.0563903637, 0.0482834280, 0.0023396709, -0.0827860311, 0.0963126123, -0.0114897927, -0.1690002680, 0.0087302402, 0.1461430788, 0.1439695358, -0.0950218216, -0.0401785746, 0.0909655765, 0.1657994837, 0.0274225939, -0.0871674046, 0.0064689433, 0.0318053886, 0.0317631066, -0.0204128269, -0.0519041643, 0.1345089376, 0.0476746708, 0.0565715805, 0.1477097869, 0.0465081483, -0.1219815686, 0.0065436754, 0.1879596412, -0.1027314588, -0.0247296523, 0.1420398951, 0.0540552065, 0.0808280632, 0.1262773573, -0.0808452666, 0.1380864978, -0.1139899939, 0.1402100772, 0.1409712285, -0.1160119772, -0.0812349990, 0.2246816754, 0.1452458054, -0.0040026819, 0.0146139851, -0.0611398630, -0.1276580840, -0.1238483265, 0.0643023178, 0.1185280010, -0.0519856922, -0.0458938293, -0.0269840639, -0.0600958914, -0.0073586921, 0.0456017330, 0.1258655041, 0.0044687032, -0.0889343247, 0.0071451557, 0.0991857573, 0.0708418936, 0.1046327949, -0.0042797760, 0.0125039034, -0.0407928638, 0.0868424028, 0.0473047420, -0.0342299417, 0.0234434549, 0.1157104298, -0.1357203871, 0.0250598826, 0.0471012183, 0.0415111557, -0.0798192099, 0.0498225838, -0.0576920025, 0.0528375879, 0.0814524293, 0.1150499955, 0.0829888210, 0.0032058284, 0.0724217296, -0.0525876582, -0.0063811974, -0.0702098683, 0.1170542315, -0.0062840227, 0.0596510731, 0.1368457377, 0.0075605866, -0.1207857132, 0.0298927389, 0.1534783095, -0.0307630878, -0.0003077286, 0.1648114324, 0.0106498003, 0.1182906777, 0.1285883635, -0.0622036383, 0.0181826279, -0.0852948427, 0.0881639346, 0.0425052382, -0.0970531330, -0.0000111327, 0.1459605396, -0.0050158282, 0.2239768356, 0.0897549689, -0.0276591945, 0.1272604764, 0.1060897112, 0.0799382553, -0.0688400790, -0.1022416279, 0.1357485354, 0.0156680644, 0.0392057411, -0.0790715665, 0.0411038473, 0.0388799533, 0.0202907342, -0.1574086994, -0.0527148880, 0.0201470777, -0.1080502868, 0.1252568960, 0.1047411487, 0.0359670334, 0.1028528288, 0.0530103594, -0.0132545475, 0.0586421490, -0.0398837849, -0.0685612708, -0.0131058088, -0.0246080905, -0.1267227381, 0.0569451265, 0.0028631031, -0.0911243707, -0.0853232443, -0.0738214254, -0.0575790815, 0.1118159145, 0.0014087177, -0.0188850183, 0.0299631637, -0.1031964570, 0.1234766468, 0.0363817401, -0.0903765559, 0.0891839489, 0.0526726805, -0.0103285164, -0.1002946496, 0.0716869682, -0.1274774969, -0.1273450255, -0.0501817502, 0.0356973149, 0.1208914891, 0.0404142886, 0.1358977407, -0.0856348351, 0.1243501902, 0.0321300924, 0.1307804883, -0.1916162223, 0.0716582462, 0.1032888815, -0.1080222353, 0.0589859448, 0.0872671753, -0.0120321214, 0.1287966520, -0.0346676186, 0.0175215993, 0.1093175784, -0.1019347832, -0.1296588033, -0.0446325056, 0.1163358986, -0.1420120299, 0.0825899318, -0.0870874226, 0.0333374105, -0.0531297661, 0.0178180113, 0.0942021757, 0.0660020933, 0.1063202918, -0.0121431714, 0.1467319429, -0.0118982065, 0.1114586145, -0.0177183133, 0.1329855323, 0.0804713741, 0.0679396167, -0.1671472937, 0.0221690312, -0.0520933494, -0.1986098737, 0.1104158536, -0.0931407809, -0.0552244484, -0.1298544556, 0.0342361853, -0.0519524105, 0.0779463574, -0.1994629800, -0.0820695385, 0.1487986594, -0.0777027830, -0.1038516462, 0.0227383394, -0.0470697731, 0.0058853137, 0.1056961492, 0.0153521728, -0.0661585256, -0.1708634645, 0.0892064646, -0.0642743632, 0.0546764955, 0.0045465673, 0.0171113592, -0.1163517460, -0.0154736433, -0.0631138310, -0.0575310290, -0.0924299061, 0.1967112571, -0.0540312268, 0.0824218765, 0.0015738526, -0.1124722958, -0.0860904753, 0.0218263008, 0.0641093105, -0.0615450181, -0.0332543850, 0.1312550902, 0.0493038185, -0.1053193957, -0.0213553011, -0.0009918317, 0.0663651302, 0.0292158723, -0.0156129561, -0.0132464319, 0.0042822566, 0.0299993716, -0.0909857899, -0.0679999441, 0.1512823701, -0.0293414705, 0.0471422672, 0.0808504671, 0.0950582251, 0.0880124047, 0.0085952003, 0.1218955368, 0.0490824021, 0.0282123964, -0.0756746605, -0.0146620739, -0.1066307053, -0.0443169624, 0.0046212738, 0.0207673889, -0.0899926722, -0.0532544479, 0.0354516804, 0.0499987788, 0.0890288949, -0.0263382681, -0.1322739720, 0.1062775254, 0.0546478517, 0.0339109898, -0.0770042390, -0.0202628449, -0.0715480074, 0.0364195444, 0.0375664160, -0.0772243813, 0.0008911091, -0.0012628193, -0.0626263842, 0.0633015111, 0.0639214069, -0.0594870746, 0.0665101409, -0.0504661314, -0.0248271544, -0.0226513837, -0.0558130182, -0.0743201151, 0.0779492930, -0.0162067674, 0.1459011137, -0.0441366695, 0.1051392853, -0.0061761844, -0.0704343617, -0.1015800014, 0.1410378963, 0.0499669313, 0.0142558245, -0.0567212589, -0.0842641443, 0.0347935520, -0.0935154855, -0.1664326787, 0.1086575240, -0.2706642449, 0.0677624345, 0.0143730789, -0.0695273504, 0.0154019212, -0.0256138127, 0.1178553328, -0.0920560434, -0.0664675310, -0.0768382475, -0.0521923155, 0.1009790152, -0.0497692190, -0.0048545925, -0.0024465995, 0.0093688015, 0.1336337775, 0.0694660172, 0.0650189221, -0.0168712735, 0.0540471300, -0.0385519266, 0.1394927651, -0.0592141896, -0.1006246731, -0.0168812070, -0.0524659045, -0.1649967134, -0.0643180832, -0.0945099741, 0.0177677516, -0.0401451290, 0.0093514509, 0.0630315244, 0.0105948960, 0.0343445390, -0.0380796082, 0.0255515855, -0.1377351582, -0.0260693282, -0.0352329277, -0.0727853253, -0.1275078654, 0.1255119741, -0.0592635609, -0.1070560887, -0.0312019624, 0.1314817369, 0.0486652143, 0.1032269672, 0.0829574987, 0.0395559669, 0.0357592255, 0.0349911451, 0.0726684630, 0.1349889636, 0.0971119106, 0.0972585902, -0.0407012105, 0.0083276574, -0.1068861037, 0.0459956154, 0.0607880577, -0.0887535289, -0.0975771844, -0.0679986328, -0.0578361489, 0.0798719749, -0.0341385789, -0.0223692935, -0.0588973723, -0.0726519302, -0.0489376672, -0.1603649110, 0.0292628612, -0.0670840889, -0.0781024173, 0.0275074691, 0.1450255811, -0.0264460426, -0.0535907447, 0.1049823985, -0.0825577602, 0.0815938935, 0.0473575220, -0.0106932018, -0.0020157015, 0.0860887095, -0.1053430885, 0.0491965935, 0.0010007364, 0.0818191096, -0.0936883539, 0.0752402842, 0.1635631323, 0.0328391083, -0.0760818198, 0.1057052091, -0.0491335094, 0.0751005560, -0.1025695354, 0.0436752811, 0.0917663947, -0.0160546862, -0.0292068720, -0.0637669712, -0.1507126242, 0.0129079456, -0.0333776064, -0.0228816066, -0.0595694445, 0.0757642537, -0.0753479525, 0.1352014393, -0.1019062996, 0.0168689974, -0.0896554440, -0.1131158322, 0.0983065069, 0.0845929533, -0.0486545749, 0.0432901122, -0.1126710176, -0.0910160765, 0.0435672253, 0.0904922485, -0.0766796917, 0.1156132594, -0.0562244952, -0.0564916506, -0.0178112220, 0.1272515357, 0.1002123356, 0.0918316096, 0.0655558705, 0.0279126931, -0.0731898695, 0.0593725033, -0.1174713969, 0.1623397768, 0.0662340000, -0.0305483099, 0.0511744320, 0.0507753231, 0.0482202470, -0.0802679062, 0.0614175163, 0.0702245906, -0.0757671073, -0.0005125236, 0.0519842096, 0.0332522951, -0.0462771095, -0.0042657130, -0.0744360015, 0.0013304269, -0.0143151162, 0.0647133589, 0.1327929199, -0.0547215380, 0.0907767117, -0.1179655492, 0.0936706141, -0.0169907678, -0.1208245158, -0.0978461877, -0.0659087971, 0.0223550312, -0.0459914133, -0.1254731119, -0.0859800875, -0.0883564055, 0.0210716259, 0.0333804451, 0.1224237978, 0.1237598062, 0.0072227791, 0.1573474407, -0.1075711027, -0.0287360009, -0.0496549755, 0.1112680137, -0.0113990409, -0.0081618680, -0.0628677085, 0.0584758595, 0.0154153407, 0.0687707588, 0.1126811802, -0.0087263426, 0.1024335250, 0.1038557217, -0.0070104431, 0.1037038490, -0.0702103898, -0.0061071515, 0.0279688779, -0.1436961442, 0.0508009121, 0.0444176383, 0.0360505506, 0.1129385605, -0.0299387146, -0.0053382935, 0.0191725250, 0.0537088886, 0.0503238924, 0.0117321666, -0.0196282249, -0.2019837201, -0.1141012758, 0.1283372641, -0.0665248632, 0.0248321500, -0.0767350122, 0.0581487603, 0.1310224682, 0.0596620291, -0.0607737675, 0.0825079232, -0.0820538625, 0.1126689464, 0.1035757363, -0.1222902313, 0.0328722745, 0.0593703948, -0.0866802633, -0.1386642009, -0.0976101458, -0.0682915300, -0.0081345262, 0.1249896139, 0.0257625971, -0.0237194020, 0.0119939940, -0.1153979972, -0.0787324011, 0.0214772485, -0.0531067736, -0.1160397828, -0.0012193682, -0.0177468546, -0.0113035534, -0.0644400641, 0.1086483374, -0.0809696913, -0.0311853252, -0.0346918181, 0.1240022480, 0.0072693531, -0.0624376088, 0.0977469236, 0.0604686700, 0.0889635608, 0.0159843545, 0.0993821174, 0.1642846763, -0.0989668742, 0.0331559815, 0.0679062828, -0.1070741788, 0.0489970744, -0.0878551155, 0.0496294200, -0.1444072574, 0.0966423303, -0.0048873136, -0.1158477589, 0.0331216604, -0.0403026268, -0.0835100487, 0.0637321025, 0.0522278324, -0.0681635514, -0.0041101994, 0.0873402506, -0.0013853840, 0.1661205441, -0.0949194059, 0.1828806400, 0.1559128761, -0.0025048638, 0.1153248325, -0.0664812699, -0.0663955361, 0.0272366740, -0.1279111654, -0.1403155327, 0.0999174044, -0.0625607744, 0.0611221194, 0.0806286931, 0.0712333918, -0.0915674493, -0.0039232820, 0.0622407943, -0.0666698441, -0.0326127112, -0.0787007883, 0.1598161161, 0.1145714894, 0.0233107470, 0.2047440857, -0.0872238204, 0.1190216839, -0.1007603481, -0.0728047043, 0.0938356146, 0.0642080382, -0.0771571174, -0.0701496750, 0.1168072820, -0.0787133425, -0.1037935764, -0.1132812649, 0.0397684127, 0.1576720029, 0.1279322952, 0.0225335564, 0.0150342220, -0.1813886613, 0.0696604252, 0.0113337794, 0.0949207246, 0.1267217845, 0.1158668622, 0.0351630524, -0.0482807159, -0.0867277756, -0.0210903492, 0.1308624595, -0.0434292778, 0.0455146022, 0.0421711132, 0.0818280727, 0.0985942483, 0.0409153067, 0.1007045284, -0.0970095396, 0.1385010034, 0.0040910784, -0.0396516137, -0.0256772581, 0.1034208462, -0.0865162015, 0.0350921676, 0.1043518260, 0.1529575586, -0.0305682421, -0.0684749782, 0.1809697151, -0.0303919408, 0.0902154669, -0.1043229327, 0.1462271065, -0.0573767386, -0.1079563498, -0.0412019566, -0.0549731627, -0.0920429006, 0.0099478392, -0.0947692990, 0.0154565033, -0.1054359227, -0.0018821541, 0.0964585468, -0.0922332257, 0.0006839578, -0.0707593858, 0.0717252716, 0.0905984938, 0.0690951571, -0.0601099804, -0.0554352552, -0.0604424998, -0.0418202579, 0.0012710413, -0.0424012206, 0.1085114554, -0.0588964373, -0.0043949522, -0.0124022542, 0.1301373988, 0.0695506334, -0.0385015309, 0.0971334502, -0.0042858650, -0.1097408161, 0.0783591047, -0.0324110836, 0.1465875953, 0.0625634491, -0.0206204057, -0.1111866683, 0.2011544555, -0.1329321712, 0.0743441433, 0.1074588150, 0.0734167919, -0.1071258634, -0.0517421961, 0.0509219840, 0.0448906459, -0.0322045758, -0.0593257695, -0.0658528358, -0.0768501461, 0.0418584310, 0.0656071901, -0.0190379452, 0.0667248592, 0.1775393039, -0.0656608120, -0.1046505868, -0.1435350329, -0.2268795967, -0.0986941308, 0.0917252526, 0.0579678342, -0.0521949865, 0.1594619155, -0.0624222457, 0.0232071895, -0.0986676589, -0.0683614686, -0.1208910570, -0.0218319222, 0.0306337811, -0.0704501271, -0.0216165278, 0.0069781751, -0.1237240434, 0.0265158918, 0.0006887406, -0.1179372370, -0.1298530698, -0.1482496113, 0.0229125582, 0.0501740053, -0.0608590953, -0.0194087159, 0.0267142113, 0.0821628496, -0.1372379065, 0.0468859226, -0.1201023459, -0.2020235360, 0.1030938104, 0.0213164445, -0.0729233697, 0.0691896230, -0.0247964021, 0.0996072888, -0.0306694712, 0.0574104935, -0.1036515906, -0.1504711658, -0.0705041736, -0.0239927135, -0.0813700333, -0.0439522602, -0.1104293540, -0.1514018327, -0.0681854114, -0.0215470735, 0.2234711647, 0.0831312686, 0.0383453555, -0.0318541378, -0.0242264271, -0.0604505688, 0.0514447950, 0.0007108949, -0.0358758382, -0.1511358321, -0.1355382949, 0.1045637578, 0.0114710443, 0.1040081456, -0.1923780143, 0.0688743740, -0.1017003059, 0.1149764806, -0.0587343834, -0.0831957161, 0.1122487336, -0.1789219081, -0.1687564999, 0.0942863300, 0.1220422834, -0.0462145247, 0.0662345514, 0.0658287480, -0.0609746501, 0.0837679580, -0.0416223370, 0.0058243717, -0.1652514338, -0.0662942827, 0.1097427681, -0.1062197536, 0.0312267169, -0.0135470331, 0.1947522908, -0.1370913982, -0.1551221311, -0.0869077072, -0.1748335212, -0.0749204308, 0.1079275012, 0.0587628372, 0.0702605098, 0.0692495778, -0.0271416120, -0.0581981614, -0.0709530637, 0.0475395918, -0.0601977967, -0.0784070343, -0.0170182437, 0.0977597535, -0.1822268516, -0.0385477431, -0.0454238839, -0.0045320559, -0.1551347822, -0.1024686694, 0.0611203350, 0.0609843433, 0.0135516096, 0.2117052376, -0.0772465989, -0.1984162033, -0.1063048616, -0.0952090994, -0.1228678375, -0.1405315250, -0.1169667616, 0.0116260909, 0.0938957334, -0.0290855430, 0.1200675219, -0.1159471944, 0.0909357071, -0.0039375341, -0.1160728261, 0.0915118456, -0.1598759443, -0.0067149345, 0.0463154130, 0.1489719152, 0.0678012297, -0.2588783503, 0.1156721413, 0.0442595519, 0.0498423055, 0.1348380744, -0.0141544966, -0.0185745489, -0.0891992375, 0.0165629908, 0.0051308563, -0.0519940555, 0.1209812909, -0.1490039974, 0.0245768838, -0.1412421614, 0.0139136631, -0.0801660717, -0.0499121211, -0.0051046265, -0.0111470437, 0.1127893105, -0.1098172143, -0.1175102368, -0.0493811592, 0.2561182678, -0.0474234074, -0.0924553499, 0.0729290321, -0.1516004950, -0.1094872355, 0.0768958330, -0.0671502650, -0.1255678236, 0.1384199411, 0.0885758772, -0.1155193001, 0.0120383399, 0.0114391260, 0.0267416276, 0.0650562644, 0.0408034213, -0.0705321580, -0.0691555142, 0.0168157239, -0.0491661467, -0.1478905678, 0.0530360155, -0.0635740757, -0.1019579768, -0.0693883598, 0.1374956369, 0.0320397355, -0.1142434850, -0.0048334645, -0.0053955251, 0.0547119007, -0.1028661802, 0.1100037768, -0.0408191495, -0.0126286540, -0.0569811873, -0.0246816799, 0.2018575817, 0.0232000146, -0.0705671906, -0.0315640457, 0.1454902589, 0.0485745706, 0.1075926870, 0.0978134274, 0.1375116706, -0.0785244182, -0.1164714098, 0.0785090104, 0.1069015563, -0.0307576004, 0.0135680363, -0.1168658584, -0.1255809963, -0.0872157812, 0.1259829998, 0.0289671812, 0.0073377253, 0.0430558920, -0.0154946297, 0.0702487379, -0.1200019047, 0.0024707187, -0.0644872561, 0.1146472394, 0.0211422388, -0.1247005612, -0.0732392222, -0.1128763407, -0.1606476903, 0.0242122933, 0.1017643586, -0.0143932244, 0.0615843758, -0.0683927238, 0.1432564408, 0.1225270331, 0.1653825045, -0.1326725632, -0.0269682128, -0.0227820799, -0.0757023543, -0.0312320348, 0.0512470752, 0.0207085330, -0.0095788296, -0.0819876045, 0.0604074970, -0.0528995916, -0.0613718033, -0.0766919628, 0.0711583421, -0.0476584807, 0.0983641520, 0.1163799763, -0.0021274008, 0.0773259997, -0.0477179624, -0.0141908852, 0.0151249804, 0.0700094551, 0.0674460530, 0.0256599374, -0.1053954065, 0.0457597114, 0.0611710362, -0.0325589404, 0.0845781416, 0.0605365857, 0.0352353714, -0.0069796480, -0.0228164252, -0.0950572118, -0.0663852394, 0.0527500361, -0.1122771204, 0.1506441534, 0.0126701323, 0.0244326945, -0.0568070784, -0.0733305290, 0.0292176660, 0.0430440493, 0.0699310973, 0.0204985309, 0.0078692446, -0.0193018857, 0.0339853615, 0.1081870645, -0.1140217111, -0.1047122627, -0.0417645276, 0.0339966789, 0.0058532716, 0.1074607223, -0.0350047760, -0.0005781739, -0.0360876583, 0.0872493014, 0.0544891208, -0.1222766414, -0.0071830233, 0.0096422797, -0.0562544614, 0.1840753853, -0.0568594187, -0.1020689085, 0.1365137696, 0.0924888477, 0.1237443388, -0.0723507330, 0.0769645497, -0.1110977829, -0.0530037209, -0.0056671132, 0.1122145131, -0.0158942081, -0.0797710046, 0.1145007312, 0.0574871562, 0.0202173572, -0.1264561713, 0.1056631207, -0.0631301031, 0.1029684991, -0.0135686211, -0.0945772976, 0.0624384359, -0.0049804244, -0.0925702974, -0.0260310899, -0.1428547204, -0.1132527143, 0.0726497099, -0.0220585074, -0.0977242738, 0.0908722878, -0.0185368564, 0.0430332907, -0.0588246435, 0.0008222724, 0.0647214800, 0.0704418495, -0.0562773310, 0.0802950263, -0.1332016140, 0.1411973387, -0.0155185796, -0.0954042375, -0.0089321211, 0.1144775152, 0.1540503949, 0.1069661453, 0.0098307710, 0.1048888266, -0.1092648283, -0.1152108982, 0.1097930446, 0.1366283000, -0.0269567929, 0.0389287286, -0.0274867564, 0.0425164998, 0.1085730419, 0.0717870519, -0.1404682845, -0.0393443592, 0.1683607846, -0.0045190868, 0.1114624068, -0.0578703322, -0.0367519632, -0.2145820260, 0.0658069178, -0.1090074107, -0.1165290028, -0.1191465631, 0.0711429417, -0.0613876432, 0.0932147503, -0.0904122368, 0.1035810933, 0.0343884565, 0.0904007331, 0.0030896477, -0.0067813834, 0.0128081916, -0.1024818569, -0.0692018941, -0.0748943612, 0.1295195222, 0.0149243474, 0.0903208405, -0.0608875677, -0.0028007401, 0.0001543138, -0.0565391071, -0.0265541375, -0.0743090957, -0.0641942844, 0.1179299280, 0.1209344193, 0.0523413010, 0.0822764486, -0.0921416581, 0.0529946201, 0.0115844971, -0.0422178023, -0.0564524941, -0.0469023027, -0.0317442194, -0.0470808670, 0.0744405761, 0.1084782630, 0.0552808158, 0.0962195173, 0.1296153963, 0.0745683983, 0.0470310412, 0.0044825482, -0.0443473011, -0.0488645174, -0.0782711729, -0.0691901073, 0.1596111804, -0.1253481358, -0.0421589725, -0.0613301210, -0.0663560405, 0.0009603968, -0.1005801633, 0.1166606173, -0.0500864461, 0.0549810566, -0.1082202718, 0.0211043898, 0.1276521087, 0.1342646331, 0.1350677162, 0.0554645136, 0.1005852371, 0.0076284017, 0.0258652121, 0.0411759019, 0.0192409605, 0.0397039130, 0.1065299809, -0.0147476895, -0.0082875425, -0.0643031225, -0.1956259310, 0.0309516415, -0.0231698770, 0.1104633957, -0.0849258676, -0.0144385556, 0.0046378272, 0.1324787289, 0.0492403582, 0.1083397493, 0.1411886513, 0.0141870501, -0.0447610430, 0.1052769870, 0.1098042950, -0.0698162690, 0.1075233072, -0.0442519113, -0.1889599562, -0.1029456183, -0.0820157751, 0.0222245213, -0.0562269837, 0.1274644434, 0.0243966058, 0.0330711156, -0.1383548081, -0.1017318219, 0.0036488499, 0.1169416085, -0.1632146835, 0.1564138979, 0.1429620534, 0.1236238033, -0.0216277130, 0.0764859989, -0.0764632598, 0.0248864926, 0.1125141531, 0.1790782213, -0.1070202589, 0.1344593465, -0.0165267158, 0.0171463657, 0.0677012056, -0.0625697896, -0.0717356130, -0.1067725345, -0.0402828380, 0.0659340769, -0.0104699256, 0.0199274737, -0.0129212672, 0.1987123787, 0.0570897385, -0.0838878602, 0.0889144167, -0.0686148405, -0.0089471713, -0.1373766810, -0.0905677378, -0.1073565036, 0.1725193411, 0.0793005079, -0.0910451710, 0.0105486317, -0.0525020398, 0.0601378791, -0.0378846787, 0.1815562546, -0.0221660957, 0.0471106879, -0.0391474105, 0.1162468269, -0.0845715553, -0.0488483571, 0.1941240430, -0.0966976508, -0.0078680813, 0.0655387565, -0.0657639429, 0.0669623837, -0.0989064202, 0.0423536412, 0.0242141187, -0.0071411761, -0.0721247420, 0.1016345918, 0.0424316786, -0.0057079489, -0.0553021021, -0.0013590067, 0.0181640033, -0.0420038253, -0.0952316895, -0.0101691708, -0.0329935737, 0.1076432243, -0.1267817765, -0.1282108575, -0.0188441724, -0.0531885847, -0.0501672775, -0.0251411889, 0.0702509135, 0.0661145002, -0.0090410858, 0.0336866640, -0.1024184078, 0.0629019886, -0.0968543738, 0.0568680987, 0.0374280140, 0.0435917638, 0.1429081261, 0.0075342334, -0.0800502375, -0.0415003635, 0.0831873640, -0.1007732823, 0.0387450680, -0.1714144349, -0.0253829807, -0.0001756230, 0.1429049522, -0.0552905686, 0.0343938842, 0.1318991631, -0.0712090954, -0.0387244970, 0.1753944904, 0.1152646020, -0.0623610541, -0.0608858541, -0.0573206842, 0.0865724310, -0.0995991230, 0.1027609482, 0.0365522467, 0.1240489855, -0.1547334790, 0.0350531712, -0.0752350837, -0.0975992903, 0.0368259251, 0.1133909374, -0.0886998177, 0.0902411565, -0.0916042849, -0.0558963418, 0.0691581815, 0.1150038019, 0.0580360144, 0.0899798423, 0.0442943163, -0.0005232528, -0.0295258518, 0.0472669303, 0.0955710784, -0.1062287539, 0.0961749032, -0.0756459460, 0.0279945862, 0.0486375578, -0.0748073980, 0.0949258804, 0.0189710371, 0.0327214077, -0.1296798885, 0.0037250184, 0.0045479634, 0.0214708094, 0.1752981544, -0.1352535784, -0.0295968596, 0.1393772364, 0.0894124508, -0.1198908091, 0.1445557326, 0.0727730393, 0.0458957404, 0.0930936784, -0.0256141294, 0.0197784603, 0.0266248416, 0.1842290461, -0.0248358734, 0.0090123573, 0.2283421606, 0.0361723043, 0.0341858901, -0.0590542108, 0.0244533923, 0.0129772769, -0.0802501291, 0.1369255185, -0.1358968616, -0.1017564237, 0.1218101308, 0.1165138111, -0.0099582179, 0.1222590506, -0.0754161477, 0.0108291125, 0.0338785015, 0.0320214219, 0.0091817500, -0.0441540033, 0.0566222295, -0.0134038469, -0.0124087548, -0.0683599263, 0.0670808479, 0.1241578460, 0.0256788749, -0.1329061538, 0.1846766174, 0.0288508590, 